tree
version=v4
num_class=1
num_tree_per_iteration=1
label_index=0
max_feature_idx=90
objective=regression
feature_names=open high low close volume trading_days weekly_return weekly_volatility avg_daily_volume open_close_ratio high_low_ratio open_lag_1 high_lag_1 low_lag_1 close_lag_1 volume_lag_1 weekly_return_lag_1 weekly_volatility_lag_1 avg_daily_volume_lag_1 open_close_ratio_lag_1 high_low_ratio_lag_1 open_lag_4 high_lag_4 low_lag_4 close_lag_4 volume_lag_4 weekly_return_lag_4 weekly_volatility_lag_4 avg_daily_volume_lag_4 open_close_ratio_lag_4 high_low_ratio_lag_4 open_lag_12 high_lag_12 low_lag_12 close_lag_12 volume_lag_12 weekly_return_lag_12 weekly_volatility_lag_12 avg_daily_volume_lag_12 open_close_ratio_lag_12 high_low_ratio_lag_12 sma_4 ema_4 price_sma_4_ratio price_ema_4_ratio sma_12 ema_12 price_sma_12_ratio price_ema_12_ratio sma_26 ema_26 price_sma_26_ratio price_ema_26_ratio sma_52 ema_52 price_sma_52_ratio price_ema_52_ratio volatility_4w volatility_12w volatility_26w atr_4w atr_pct_4w atr_12w atr_pct_12w atr_26w atr_pct_26w roc_1w roc_4w roc_12w roc_26w rsi_14w macd macd_signal macd_histogram volume_sma_4 volume_ratio_4 volume_sma_12 volume_ratio_12 volume_sma_26 volume_ratio_26 obv obv_sma_12 resistance_12w support_12w price_position_12w resistance_26w support_26w price_position_26w resistance_52w support_52w price_position_52w
feature_infos=[0.26566756702450717:165.50999450683594] [0.2777630305980115:167.25] [0.25558170776610839:164.47999572753906] [0.26085379719734192:165.32000732421875] [3729600:12183876000] [1:5] [-0.1755912077231031:0.62140757520171119] [0.0094618581421964647:0.35953606734770754] [750360:2436775200] [0.73462738164291719:1.2288859974125221] [1.0094890652166706:1.469520985007789] [0.26566756702450717:165.19000244140625] [0.2777630305980115:167.25] [0.25558170776610839:164.47999572753906] [0.26085379719734192:165.32000732421875] [3751800:12183876000] [-0.1755912077231031:0.62140757520171119] [0.0096053381725797055:0.35953606734770754] [750360:2436775200] [0.73462738164291719:1.2288859974125221] [1.0096542093910887:1.469520985007789] [0.26566756702450717:158.10000610351562] [0.2777630305980115:160.24000549316406] [0.25558170776610839:157.27999877929688] [0.26085379719734192:159.38999938964844] [3751800:12183876000] [-0.1755912077231031:0.62140757520171119] [0.0096053381725797055:0.35953606734770754] [750360:2436775200] [0.73462738164291719:1.2288859974125221] [1.0096542093910887:1.469520985007789] [0.25008034124354733:154.70218715847986] [0.26360459769570643:156.58296881607487] [0.24366233873579282:152.63676568950373] [0.2587909996509552:155.16328430175781] [3751800:12183876000] [-0.1755912077231031:0.62140757520171119] [0.0096053381725797055:0.35953606734770754] [750360:2436775200] [0.73462738164291719:1.2288859974125221] [1.0096542093910887:1.469520985007789] [0.27186316251754761:164.47999954223633] [0.27431197965724413:163.23872424396069] [0.80897586307450886:1.4296006831041501] [0.84468417511293326:1.3137668993160065] [0.2792491614818573:155.40749867757162] [0.28405536143872578:157.62937300262342] [0.70154978377863275:1.8613954852907597] [0.72329384270592523:1.6603148260680058] [0.27881252937591994:150.3749994131235] [0.29060137924745394:152.07611501333972] [0.60623890604030028:2.2035129935498698] [0.64281793985194735:2.0138329271261819] [0.29411202210646409:144.19057655334473] [0.29943852196877591:147.06389145547038] [0.48520396828420248:2.7582094099434733] [0.5389978763610439:2.3462572909127015] [0.0029006278246957369:2.2319337182291985] [0.035506935718154838:1.306210392925349] [0.06681621767411651:0.89468638711407] [0.0098069169333392797:12.434283335973422] [0.012153108391556415:0.24999998867111831] [0.011965766137095157:8.0053843896090591] [0.017656097481159035:0.20986360778602878] [0.015019017919290945:7.1106069719409586] [0.018286847947200518:0.1872650294996436] [-0.1755912077231031:0.62140757520171119] [-0.33762169374054263:0.9130250326766256] [-0.43031731175494525:1.89147034886496] [-0.56140152053846204:4.0382689187877991] [1.7995855356866315:100] [-4.8218234363779118:8.4857348743793608] [-4.1884927669926544:7.4650835778232461] [-2.1415747976757382:3.3727863012727748] [5340075:7996681000] [0.25073698898711483:2.9383555616577275] [6325575:6717395666.666667] [0.27043784871349336:6.3677277924815785] [6552115.384615385:5128438615.3846149] [0.22089552949631167:9.3715447176446105] [-45318180000:38256962400] [-43252633000:36039047400] [0.30175027064419191:167.25] [0.25030978338190407:143.80999755859375] [-9.8869587518254066e-16:1.0000000000000013] [0.30509370731401148:167.25] [0.19827646633150409:140.94999694824219] [0:1.0000000000000004] [0.34887486909966231:167.25] [0.19827646633150409:132.02999877929688] [0:1.0000000000000004]
tree_sizes=2777 2880 2893 2908 2869 2889 2877 2881

Tree=0
num_leaves=31
num_cat=0
split_feature=54 72 61 89 52 78 63 59 89 1 81 47 86 64 90 76 59 28 90 3 15 86 81 59 83 71 81 78 61 86
split_gain=3.48434 3.3586 2.93107 3.78241 1.37455 1.44818 1.0533 1.32399 0.986331 0.934013 0.859206 1.10991 0.858374 0.834172 0.742932 0.728242 0.771348 0.712337 0.612731 0.517133 0.511765 0.563151 0.48565 0.445064 0.55574 0.409464 0.409184 0.524892 0.3677 0.336059
threshold=7.8385347270185886 0.058343013712905088 0.092053855728789977 1.4596664905548098 0.95949110182355446 2201217730.7692313 0.15770214632349353 0.30862158815953228 8.8695830390459367 0.4354031428982636 9049348937.5000019 0.97519512702341238 26.405499461838058 0.16619242213425137 0.77258143813500169 1528376333.3333337 0.38038902146488635 20813832.125000004 0.32577311269143877 9.278776168823244 436616750.00000006 8.3633333952982643 1240182562.5000002 0.34431955669741116 24.551191731186936 0.015261401767081325 173780179.16666669 231716230.76923081 0.029477119445554468 2.6523806268242942
decision_type=2 2 2 2 2 2 2 2 2 2 2 2 2 2 2 2 2 2 2 2 2 2 2 2 2 2 2 2 2 2
left_child=1 4 13 -4 9 15 7 14 20 -1 11 23 26 17 19 25 -17 -3 -12 -2 -9 -22 -21 -10 -25 -6 27 -13 -24 -15
right_child=6 2 3 -5 5 -7 -8 8 10 -11 18 12 -14 29 -16 16 -18 -19 -20 22 21 -23 28 24 -26 -27 -28 -29 -30 -31
leaf_value=0.049743889951916372 0.041506744545279625 0.050955104958733816 0.05173538474956077 0.076847387670373565 0.050265271003870168 0.039741490465272013 0.037210323211940774 0.049887258030809206 0.052895466257216951 0.060368837070676619 0.053259158797833536 0.053727721315783773 0.047894215618978241 0.045921590293971221 0.047972515453382304 0.050121449246663688 0.061381646872207735 0.062739283929702322 0.044305264911939722 0.049883464694220864 0.048831670156968411 0.04024791935817025 0.04680989083718707 0.063890738753721227 0.054162977269855396 0.045537186465783211 0.054528382661842588 0.04712422812160396 0.048949189460774499 0.052644294395692397
leaf_weight=41 22 21 26 37 89 44 20 83 46 44 27 62 134 23 3564 48 23 38 62 1214 38 41 264 35 29 92 149 57 861 84
leaf_count=41 22 21 26 37 89 44 20 83 46 44 27 62 134 23 3564 48 23 38 62 1214 38 41 264 35 29 92 149 57 861 84
internal_value=0.048976 0.0525929 0.0573789 0.0665837 0.0497016 0.0481066 0.0486463 0.0486814 0.0506399 0.0553095 0.0515767 0.0523684 0.0511325 0.053847 0.0484283 0.0495504 0.0538517 0.0586399 0.0470794 0.0491143 0.0471962 0.0443081 0.0491883 0.0568337 0.0595758 0.0478891 0.0527701 0.0505238 0.0484426 0.051151
internal_weight=7318 610 229 63 381 296 6708 6688 763 85 601 512 402 166 5925 252 71 59 89 2361 162 79 2339 110 64 181 268 119 1125 107
internal_count=7318 610 229 63 381 296 6708 6688 763 85 601 512 402 166 5925 252 71 59 89 2361 162 79 2339 110 64 181 268 119 1125 107
is_linear=0
shrinkage=1


Tree=1
num_leaves=31
num_cat=0
split_feature=54 72 17 58 52 78 58 63 84 0 80 80 80 58 52 76 65 76 88 74 89 69 86 86 80 16 23 80 80 86
split_gain=3.14964 3.03279 2.69555 1.95856 1.2479 1.30607 1.16551 1.20274 0.922931 0.721116 0.683765 0.598096 0.595904 1.3271 0.57831 0.930284 0.570964 0.853943 0.548455 1.00871 0.556013 0.421779 0.704 1.4078 0.37919 0.376857 0.361851 0.341531 0.338917 0.45682
threshold=7.8385347270185886 0.058343013712905088 0.10957915186929609 0.47631867670139683 0.93147495653239953 2201217730.7692313 0.25203182054788936 0.15770214632349353 0.54501951597905529 0.45675848704978411 9185671500.0000019 16739968000.000002 -9602375699.9999981 0.40737404851875403 1.0253510591573642 587687112.50000012 0.067417499699269121 668578050.00000012 9.2747460585688604 148920525.00000003 1.4596664905548098 -0.23944208502453876 22.470883528023105 30.149222255553301 1244962350.0000002 0.015592826395620764 13.49219282157746 1411980300.0000002 9185671500.0000019 26.405499461838058
decision_type=2 2 2 2 2 2 2 2 2 2 2 2 2 2 2 2 2 2 2 2 2 2 2 2 2 2 2 2 2 2
left_child=1 4 18 -4 9 12 14 8 10 -1 16 -12 13 -6 15 24 -8 21 19 20 -3 -18 26 -24 -2 -21 -23 -16 29 -10
right_child=6 2 3 -5 5 -7 7 -9 28 -11 11 -13 -14 -15 27 -17 17 -19 -20 25 -22 22 23 -25 -26 -27 -28 -29 -30 -31
leaf_value=0.0016988305499517293 0.00071907284695342912 -0.0008008719265578325 0.030861528808325156 0.0085385656875811428 0.00063661349543357336 -0.0078149845275120779 0.0019596487879603277 -0.011217631695824515 0.0013480937881858715 0.012974064966145249 -0.0060111898691985674 0.002475324909328848 -0.0017755779286506871 0.012742671800455827 -0.00072716675207307223 -0.0087558848443023401 0.012579960400767873 -0.0034177221155229521 0.0001339126343174935 0.017957114103793827 0.0067619902711789403 0.0053521861615363365 0.019765476011607913 0.0035010101423286668 -0.00066917539672263417 0.0081371466517327472 -0.0012635743701857041 -0.0018079047814680345 -0.0030848078433768399 -0.0011630573411630487
leaf_weight=30 1106 37 20 21 122 52 320 20 451 29 40 42 120 28 2100 30 27 23 41 22 65 47 22 36 884 23 35 1144 80 301
leaf_count=30 1106 37 20 21 122 52 320 20 451 29 40 42 120 28 2100 30 27 23 41 22 65 47 22 36 884 23 35 1144 80 301
internal_value=-3.70678e-05 0.00340169 0.00794979 0.0195981 0.000653561 -0.000557616 -0.000350567 0.000906249 0.00108082 0.00733807 0.00258969 -0.00160582 0.000823964 0.00293671 -0.000696292 -2.96043e-05 0.00327424 0.0054598 0.00537383 0.00680023 0.00397153 0.00671369 0.00553847 0.00977975 9.98686e-05 0.0130781 0.00246938 -0.00110988 1.00401e-06 0.000336296
internal_weight=7318 610 229 41 381 322 6708 1444 1424 59 592 82 270 150 5264 2020 510 190 188 147 102 167 140 58 1990 45 82 3244 832 752
internal_count=7318 610 229 41 381 322 6708 1444 1424 59 592 82 270 150 5264 2020 510 190 188 147 102 167 140 58 1990 45 82 3244 832 752
is_linear=0
shrinkage=0.05


Tree=2
num_leaves=31
num_cat=0
split_feature=54 72 61 65 71 58 63 81 84 64 81 59 73 28 55 76 63 47 65 58 81 31 86 31 78 74 54 81 60 81
split_gain=2.84771 2.74042 2.54028 3.70142 1.18712 1.05218 1.08621 0.904711 0.833936 0.743541 0.637333 0.872914 0.677116 0.595734 0.532309 0.967151 0.441471 0.414646 0.469058 0.848789 0.385431 0.309734 0.306948 0.305037 0.292717 0.362377 0.414846 0.290162 0.389349 0.322569
threshold=7.8385347270185886 0.058343013712905088 0.092053855728789977 0.074774443261389892 -0.036935369343883188 0.25203182054788936 0.15770214632349353 411180468.58333343 0.54501951597905529 0.16619242213425137 9519596000.0000019 0.35306097898114436 -0.42250382533382974 20813832.125000004 1.0353153806418376 587687112.50000012 0.072948349508823826 0.9585783384354819 0.067417499699269121 0.41192025463684295 1240182562.5000002 35.096476455124602 2.6523806268242942 0.49261571452193964 256499455.36538464 310555912.50000006 10.638658600492837 -5085481587.499999 0.55725325275373339 2470581779.1666675
decision_type=2 2 2 2 2 2 2 2 2 2 2 2 2 2 2 2 2 2 2 2 2 2 2 2 2 2 2 2 2 2
left_child=1 4 9 -4 -1 14 8 17 10 13 11 -7 -13 -3 15 20 -12 23 19 -19 21 -2 -11 -6 -14 -26 -27 -10 -29 -30
right_child=5 2 3 -5 7 6 -8 -9 27 22 16 12 24 -15 -16 -17 -18 18 -20 -21 -22 -23 -24 -25 25 26 -28 28 29 -31
leaf_value=0.010915825333646089 0.0026583318275710702 0.0017397894051204043 0.030129058258367414 0.0054340207662918402 0.00060251512977122564 0.0018649619601177865 -0.010659540654970935 -0.0099289024775485388 -0.0037631228520668535 -0.0032809975698138726 0.0018788583778701481 0.014303503584317648 0.0087420068851053884 0.012541379502869342 -0.0009679482635183089 -0.0091876493729101116 -0.0051572110694158395 -8.9587657379529102e-05 -0.0027871598645151574 0.010275662448499111 -0.00050167608129071748 0.00042325372616856382 0.0031531528433893924 0.0075776694058165006 -0.0022129309587012049 -5.4862863556327403e-05 0.0086473854853631408 0.0057202029676802482 0.00073628840959160226 -0.0014651842348573467
leaf_weight=26 233 21 27 36 34 368 20 22 48 23 46 24 35 38 3840 27 42 130 114 23 680 484 84 32 22 21 34 31 505 248
leaf_count=26 233 21 27 36 34 368 20 22 48 23 46 24 35 38 3840 27 42 130 114 23 680 484 84 32 22 21 34 31 505 248
internal_value=-3.49414e-05 0.0032348 0.00755823 0.0161278 0.000621781 -0.000333068 0.000861009 -0.00012093 0.00102706 0.00426806 0.00246134 0.0031499 0.00658612 0.0087908 -0.000661583 0.00016107 -0.00142455 0.00051482 -0.000345573 0.00144162 0.000345977 0.00115682 0.00172165 0.0040664 0.00487651 0.00304556 0.0052399 3.35501e-07 0.000237579 4.4975e-06
internal_weight=7318 610 229 63 381 6708 1444 355 1424 166 592 504 136 59 5264 1424 88 333 267 153 1397 717 107 66 112 77 55 832 784 753
internal_count=7318 610 229 63 381 6708 1444 355 1424 166 592 504 136 59 5264 1424 88 333 267 153 1397 717 107 66 112 77 55 832 784 753
is_linear=0
shrinkage=0.05


Tree=3
num_leaves=31
num_cat=0
split_feature=54 72 61 65 71 58 63 81 65 0 59 73 78 73 90 80 81 59 45 72 71 80 89 80 86 42 65 89 78 59
split_gain=2.5733 2.47573 2.29315 3.33885 1.07177 0.95626 0.952205 0.816932 0.700847 0.600009 0.637693 0.536703 0.531669 0.801208 0.605827 0.49083 0.488311 0.675428 0.748853 0.599567 1.11874 0.595865 0.47932 0.409427 0.556539 0.61635 0.914848 0.342823 0.337724 0.324047
threshold=7.8385347270185886 0.058343013712905088 0.092053855728789977 0.074774443261389892 -0.036935369343883188 0.23237654031662358 0.15770214632349353 411180468.58333343 0.10945149071659778 1.7889999747276308 0.26186219024804619 0.043198222982425517 515187423.07692313 -0.12673398979050407 0.77426000841821307 1209025350.0000002 9049348937.5000019 0.30608474521461293 11.184075991312664 -0.55657453781837318 -0.3598861744450596 16739968000.000002 2.1399021262994657 1.0000000180025095e-35 0.40155241604985342 1.7855522423474379 0.058238048855051551 8.8695830390459367 411231884.61538464 0.30862158815953228
decision_type=2 2 2 2 2 2 2 2 2 2 2 2 2 2 2 2 2 2 2 2 2 2 2 2 2 2 2 2 2 2
left_child=1 4 9 -4 -1 12 8 23 11 -3 -11 16 14 -14 15 28 17 -7 -19 -20 -21 -18 -12 24 -6 26 -26 -13 -2 -29
right_child=5 2 3 -5 7 6 -8 -9 -10 10 22 27 13 -15 -16 -17 21 18 19 20 -22 -23 -24 -25 25 -27 -28 29 -30 -31
leaf_value=0.010372125211089737 0.00079954714883684818 0.012236311340435822 0.028628164403332997 0.0051630724930924222 -0.00061921144767357968 0.00090043898143323399 -0.010129215073220395 -0.0094347034730080399 0.0096653679501669861 0.010755488770377582 -0.0033321879826224256 -0.003416128461544995 -0.010998627391142581 -0.0016568115160496577 -0.0010194573275297567 -0.00069914663715749841 -0.0049831942689632499 -0.00070699972852337806 0.00039455481203151547 0.017106502832143339 0.0050835193116693092 0.0019106307064394115 0.0034670323483441366 -0.0031855878666342038 6.4662737174486478e-05 0.00021750665460468956 0.012861356447256906 -0.00084561404584164186 0.0069591924157074263 0.00135507024116129
leaf_weight=26 879 20 27 36 154 571 20 22 22 22 36 79 30 105 3014 873 61 65 49 23 141 63 88 61 25 59 34 406 23 284
leaf_count=26 879 20 27 36 154 571 20 22 22 22 36 79 30 105 3014 873 61 65 49 23 141 63 88 61 25 59 34 406 23 284
internal_value=-3.29365e-05 0.00307524 0.00718468 0.0153282 0.000590909 -0.00031637 0.000674 -0.0001141 0.000799887 0.00405659 0.00289425 0.000684505 -0.000676209 -0.00377638 -0.000587695 0.000142648 0.00146554 0.00189616 0.0039223 0.00535813 0.00680954 -0.00144168 0.00145168 0.000489313 0.00133271 0.00392083 0.00753292 -0.000297288 0.000962908 5.29946e-05
internal_weight=7318 610 229 63 381 6708 1784 355 1764 166 146 1742 4924 135 4789 1775 973 849 278 213 164 124 124 333 272 118 59 769 902 690
internal_count=7318 610 229 63 381 6708 1784 355 1764 166 146 1742 4924 135 4789 1775 973 849 278 213 164 124 124 333 272 118 59 769 902 690
is_linear=0
shrinkage=0.05


Tree=4
num_leaves=31
num_cat=0
split_feature=89 72 72 17 78 48 55 58 70 65 80 88 46 59 65 56 52 78 58 80 1 28 80 30 69 55 1 87 24 53
split_gain=2.34004 2.4052 1.82073 1.00722 0.946977 1.02743 0.868744 0.86808 0.698322 0.785002 0.587084 0.680306 0.711112 0.916616 0.678291 0.477312 0.603056 0.423969 0.71962 0.36612 0.443965 0.359313 0.333483 0.30421 0.292265 0.289085 0.288149 0.283558 1.0654 0.390861
threshold=4.7058990662469578 0.081945088086909604 0.10270415639841078 0.10957915186929609 2201217730.7692313 0.95513336086301104 0.9423887165736079 0.25203182054788936 21.667084108120878 0.10945149071659778 9185671500.0000019 39.279397241426231 11.398229276590506 0.30608474521461293 0.057151543174487611 0.89115940898101365 1.0105515003018761 1353502769.2307694 0.3611381009552313 279528050.00000006 9.5498462568060933 112608250.00000001 1270544500.0000002 1.0968356727219855 -0.12352125000641005 0.87201819785705192 10.416748064646963 0.3870339738182047 15.575870037078859 12.03126250780546
decision_type=2 2 2 2 2 2 2 2 2 2 2 2 2 2 2 2 2 2 2 2 2 2 2 2 2 2 2 2 2 2
left_child=1 4 -3 19 5 -1 -6 15 -9 10 11 12 26 -14 -12 -2 -17 23 -19 -4 21 -21 -18 -7 -16 -13 -10 28 -15 -29
right_child=7 2 3 -5 6 17 -8 8 9 -11 14 25 13 27 24 16 22 18 -20 20 -22 -23 -24 -25 -26 -27 -28 29 -30 -31
leaf_value=0.008459846485198803 -0.0066917281602204689 0.02160095217244885 -0.00038314855075763789 0.013436729624533118 0.00073817860254367504 0.00047209036497959807 -0.0096605365370422847 -0.0072980917529452769 0.0015508901313468621 0.010305526061826366 0.0018585347770982063 0.0053206946306790298 0.0010048977163861993 0.0035551348469872661 0 0.00031303397926623526 -0.00050753034407838575 0.00055028493229503149 0.009118355800161548 0.0049600879204121642 -0.0005866498825439501 0.013164954152495707 -0.0014694775301037409 -0.0042598126060682919 -0.0064118236581995544 -0.00051739400306201062 -0.0025766309124650687 0.010869787815050108 0.017668342189075641 0.0033773144363870898
leaf_weight=52 32 21 36 35 42 124 37 26 76 22 64 22 290 44 25 1428 2301 86 35 52 22 20 1507 46 70 481 93 20 20 189
leaf_count=52 32 21 36 35 42 124 37 26 76 22 64 22 290 44 25 1428 2301 86 35 52 22 20 1507 46 70 481 93 20 20 189
internal_value=-3.10322e-05 0.0029382 0.00767678 0.00586232 0.000836466 0.0019831 -0.00407495 -0.000300863 0.000784599 0.000937046 0.000784878 0.00115568 0.00212909 0.00298449 -0.00206271 -0.000598942 -0.000560624 0.000806056 0.00307542 0.00377586 0.00542052 0.00732366 -0.000889558 -0.000780664 -0.00475615 -0.000251105 -0.00069108 0.00506792 0.0080642 0.00412307
internal_weight=7318 608 186 165 422 343 79 6710 1442 1416 1394 1235 732 563 159 5268 5236 291 121 130 94 72 3808 170 95 503 169 273 64 209
internal_count=7318 608 186 165 422 343 79 6710 1442 1416 1394 1235 732 563 159 5268 5236 291 121 130 94 72 3808 170 95 503 169 273 64 209
is_linear=0
shrinkage=0.05


Tree=5
num_leaves=31
num_cat=0
split_feature=89 72 7 65 78 52 58 40 15 55 84 80 74 64 59 80 65 59 70 90 56 73 49 81 59 52 69 89 81 80
split_gain=2.44232 2.49628 1.96007 3.00192 0.983447 1.06528 0.723713 0.694521 0.955476 0.638097 0.606179 0.575934 0.836291 0.543331 0.760424 0.451979 0.8144 0.64275 0.81049 0.417738 0.400461 0.388596 0.366311 0.355593 0.337561 0.331814 0.321521 0.316821 0.448833 0.311794
threshold=4.7058990662469578 0.088748520365509745 0.10940585829134655 0.074774443261389892 2201217730.7692313 0.94770718547814259 0.2343236187098191 1.0662943505164741 133504496.50000001 0.9423887165736079 0.71042535346240943 1543229406.5000002 557875835.50000012 0.16619242213425137 0.39261556863442065 9185671500.0000019 0.055453463635364728 0.35306097898114436 31.726864741611092 0.74373600024833519 1.0268925465170249 -0.32726582366252782 12.224459152955278 2470581779.1666675 0.47859211987768674 1.2342279558405542 -0.12352125000641005 20.224269688573184 -5085481587.499999 326607850.00000006
decision_type=2 2 2 2 2 2 2 2 2 2 2 2 2 2 2 2 2 2 2 2 2 2 2 2 2 2 2 2 2 2
left_child=1 4 7 -4 5 24 11 8 -3 -6 15 12 19 14 -7 17 -17 -8 -19 22 -15 -20 -2 27 -1 29 -18 28 -12 -9
right_child=6 2 3 -5 9 13 10 25 -10 -11 23 -13 -14 20 -16 16 26 18 21 -21 -22 -23 -24 -25 -26 -27 -28 -29 -30 -31
leaf_value=0.0037308549593792727 0.0059804826348184431 0.0037835049613334408 0.030029916717793065 0.0036281732490446362 0.00019043934198710396 0.0012649145907501292 0.0010999769118830165 -0.00028672678554190041 0.015353217649975935 -0.0090218012334121207 -0.0035363280028943228 -0.0013314955861590749 -0.0096608167244081125 0.0021931106181781921 0.011433746157240529 0.0047736228930524167 3.112240651357579e-05 -0.0045779247178245183 0.010664261924851554 -0.00048706196150973436 -0.0039350222392059526 0.0043445832970745116 0.00053655118534384186 -0.002321443097778631 0.011990096038857173 -0.0038695036290000324 -0.0062853285197812725 -0.00087573924006601194 0.002463685435823398 0.0068354314590609901
leaf_weight=25 32 48 22 22 36 159 643 27 30 37 36 1584 23 39 21 37 29 22 31 2338 79 150 1040 186 30 20 56 298 207 32
leaf_count=25 32 48 22 22 36 159 643 27 30 37 36 1584 23 39 21 37 29 22 31 2338 79 150 1040 186 30 20 56 298 207 32
internal_value=3.8054e-05 0.0030227 0.00761727 0.0169806 0.000841828 0.00194431 -0.000240052 0.00495219 0.00831138 -0.00441633 0.000651816 -0.000542374 -0.000176786 0.000744684 0.00248473 0.00147237 -0.00134807 0.00188512 0.00434568 -0.00011107 -0.00186714 0.00545986 0.000704263 -0.00043393 0.00834022 0.00156599 -0.00407405 0.00020608 0.00155314 0.00349657
internal_weight=7339 627 201 44 426 353 6712 157 78 73 1695 5017 3433 298 180 968 122 846 203 3410 118 181 1072 727 55 79 85 541 243 59
internal_count=7339 627 201 44 426 353 6712 157 78 73 1695 5017 3433 298 180 968 122 846 203 3410 118 181 1072 727 55 79 85 541 243 59
is_linear=0
shrinkage=0.05


Tree=6
num_leaves=31
num_cat=0
split_feature=89 72 7 81 78 52 58 37 89 55 73 64 59 90 60 90 81 59 64 63 58 87 52 89 81 64 78 72 0 78
split_gain=2.20838 2.25364 1.77027 2.01378 0.887639 0.962362 0.654523 0.619434 0.631501 0.576883 0.542064 0.490434 0.686193 0.453441 0.443881 0.419724 0.403968 0.606481 0.806062 0.500079 0.439753 0.544611 0.37689 0.353822 0.311401 0.314239 0.604646 0.742613 1.12468 0.309169
threshold=4.7058990662469578 0.088748520365509745 0.10940585829134655 3063773129.1666675 2201217730.7692313 0.94770718547814259 0.23237654031662358 0.047984611687279362 2.234424258354625 0.9423887165736079 0.039843228261780377 0.16619242213425137 0.39261556863442065 0.13509200970214461 1.0813665612998624 0.74373600024833519 9519596000.0000019 0.31501919181144061 0.72022065532264423 0.068951322702216336 0.35355187863367216 0.34031573738367832 1.0512826878783026 8.8695830390459367 1491361308.3333335 3.801857935883838 20640726.923076928 0.88250019191669427 38.228300156720643 1736173846.1538465
decision_type=2 2 2 2 2 2 2 2 2 2 2 2 2 2 2 2 2 2 2 2 2 2 2 2 2 2 2 2 2 2
left_child=1 4 7 -4 5 -1 13 8 -3 -6 16 12 -7 14 -2 -15 17 -8 -19 -18 21 -20 -13 -12 25 26 27 28 -17 -25
right_child=6 2 3 -5 9 11 10 -9 -10 -11 23 22 -14 15 -16 24 19 18 20 -21 -22 -23 -24 29 -26 -27 -28 -29 -30 -31
leaf_value=0.0079291768219937227 -0.010829009295781077 0.016112915327484496 0.027892111841385344 0.006065910459105775 0.0001809436918192458 0.0012017086232957647 0.00084128186619178739 0.0027111222692740812 0.0036143241041420001 -0.0085719271176406802 -0.0036579044809748455 0.00098433649031896072 0.010864768110180355 0.00018847108904637881 -0.0001683476167865357 0 0.0021173796501643455 -0.0037843219643919888 0.012205091768981151 -0.0045380235709305767 0.0029694096508856883 0.0041426545896287676 -0.0046094271643174929 -0.00023806770983515651 -0.001554516966202105 -0.0024599130180042441 -0.00072868211949031654 0.00062813106683645172 0.015508022150066914 0.0051122164356214028
leaf_weight=55 21 21 20 24 36 159 582 114 22 37 74 59 21 1589 20 24 52 31 37 60 151 55 59 685 968 186 1743 384 22 28
leaf_count=55 21 21 20 24 36 159 582 114 22 37 74 59 21 1589 20 24 52 31 37 60 151 55 59 685 968 186 1743 384 22 28
internal_value=3.64062e-05 0.00287454 0.00724027 0.016141 0.000801706 0.0018496 -0.000228012 0.00470527 0.00985752 -0.0041927 0.000600449 0.000708472 0.00236223 -0.000522338 -0.0057634 -0.000477494 0.00139381 0.00176587 0.00371052 -0.00140428 0.00468839 0.00744918 -0.00177174 -0.000369073 -0.000797063 -0.000484074 -0.000312544 0.00136242 0.007369 -2.02593e-05
internal_weight=7339 627 201 44 426 353 6712 157 43 73 1755 298 180 4957 41 4916 968 856 274 112 243 92 118 787 3327 2359 2173 430 46 713
internal_count=7339 627 201 44 426 353 6712 157 43 73 1755 298 180 4957 41 4916 968 856 274 112 243 92 118 787 3327 2359 2173 430 46 713
is_linear=0
shrinkage=0.05


Tree=7
num_leaves=31
num_cat=0
split_feature=34 72 74 78 71 53 84 59 80 64 81 45 64 49 81 55 51 80 0 53 64 80 31 64 65 56 12 65 80 74
split_gain=1.90315 2.58876 2.64844 3.3518 1.07418 0.760384 0.717001 0.886681 1.17246 0.8133 0.640873 0.538315 1.76043 0.765296 0.524413 0.421114 0.362352 0.354297 0.349339 1.38933 0.342747 0.334069 0.406941 0.629233 0.714346 0.472152 0.285567 0.269877 0.364816 0.684638
threshold=6.397076129913331 0.088748520365509745 148920525.00000003 425534764.46153849 -0.036935369343883188 2.118865361580482 0.70625409710856324 0.31501919181144061 9185671500.0000019 0.72022065532264423 444497495.83333343 26.954329013824466 1.4981339580698843 27.364308980795055 1563826816.6666667 1.2209541163197122 1.2534366971754158 1705343500.0000002 40.979429846820182 36.419204363456146 0.65638761567303949 195278800.00000003 0.49261571452193964 0.16619242213425137 0.058238048855051551 1.0195538127343862 9.4875522882958148 0.043314324772842007 -4238171399.9999995 400692075.00000006
decision_type=2 2 2 2 2 2 2 2 2 2 2 2 2 2 2 2 2 2 2 2 2 2 2 2 2 2 2 2 2 2
left_child=1 4 5 -4 -1 -3 7 26 9 20 21 12 15 -13 18 -11 17 -16 19 27 -9 22 -6 24 -24 -25 -2 -8 -29 -30
right_child=6 2 3 -5 10 -7 14 8 -10 11 -12 13 -14 -15 16 -17 -18 -19 -20 -21 -22 -23 23 25 -26 -27 -28 28 29 -31
leaf_value=0.010400277802315146 -0.0055308417203428946 -0.0029494831991269967 0.031541383340632244 0.0072486974637183694 -0.00068312472826772695 0.0065146740281510273 -0.00049017511259663441 0.0020800767795866762 -0.0036445439873524256 0.0031265980609008408 -0.0085892486376734217 -0.007064031684002027 0.018273800849857458 0.0036786609165965854 -0.0055006227519173749 0.010053421682729713 -0.0069536878678054083 -0.0012625001491684031 -0.0008747030365193507 0.010937821141063574 -0.00594452472861021 -0.0040334263742182325 0.0019367585686876022 0.0043524163591739766 0.012061731047760635 -0.0027763929212549065 4.9710942773255212e-05 -0.0022054429373699323 0.0012421314221575316 0.010305941196811663
leaf_weight=27 23 34 23 39 163 54 731 24 66 146 20 20 26 90 53 27 32 906 1267 30 28 35 43 39 31 57 2979 61 242 23
leaf_count=27 23 34 23 39 163 54 731 24 66 146 20 20 26 90 53 27 32 906 1267 30 28 35 43 39 31 57 2979 61 242 23
internal_value=3.48583e-05 0.00282313 0.00845367 0.0163773 0.000774402 0.00280212 -0.000197004 0.000310042 0.00244166 0.00356893 8.91697e-05 0.00454756 0.00610844 0.00167539 -0.000718271 0.00424173 -0.00168424 -0.00150249 -0.000309435 0.000344859 -0.00214801 0.000576611 0.00107723 0.0027939 0.00625633 6.91722e-05 5.1069e-06 3.8471e-05 0.00123899 0.00205125
internal_weight=7339 565 150 62 415 88 6774 3429 427 361 388 309 199 110 3345 173 991 959 2354 1087 52 368 333 170 74 96 3002 1057 326 265
internal_count=7339 565 150 62 415 88 6774 3429 427 361 388 309 199 110 3345 173 991 959 2354 1087 52 368 333 170 74 96 3002 1057 326 265
is_linear=0
shrinkage=0.05


end of trees

feature_importances:
obv=19
obv_sma_12=17
volatility_26w=14
volume_sma_26=13
atr_pct_26w=12
volatility_12w=11
macd_signal=11
support_52w=11
atr_26w=10
price_ema_26_ratio=8
support_26w=8
price_sma_52_ratio=6
atr_pct_12w=6
price_position_52w=6
ema_52=5
macd=5
macd_histogram=5
volume_sma_4=5
open=4
atr_pct_4w=4
volume_sma_12=4
price_position_12w=4
high=3
avg_daily_volume_lag_4=3
open_lag_12=3
sma_52=3
price_ema_52_ratio=3
roc_26w=3
weekly_volatility=2
volume_lag_1=2
weekly_volatility_lag_1=2
sma_12=2
price_sma_12_ratio=2
sma_26=2
atr_4w=2
rsi_14w=2
price_position_26w=2
resistance_52w=2
close=1
high_lag_1=1
weekly_return_lag_1=1
low_lag_4=1
close_lag_4=1
high_low_ratio_lag_4=1
close_lag_12=1
weekly_volatility_lag_12=1
high_low_ratio_lag_12=1
ema_4=1
ema_12=1
price_ema_12_ratio=1
price_sma_26_ratio=1
support_12w=1

parameters:
[boosting: gbdt]
[objective: regression]
[metric: rmse]
[tree_learner: serial]
[device_type: cpu]
[data_sample_strategy: bagging]
[data: ]
[valid: ]
[num_iterations: 1000]
[learning_rate: 0.05]
[num_leaves: 31]
[num_threads: 0]
[seed: 42]
[deterministic: 0]
[force_col_wise: 0]
[force_row_wise: 0]
[histogram_pool_size: -1]
[max_depth: -1]
[min_data_in_leaf: 20]
[min_sum_hessian_in_leaf: 0.001]
[bagging_fraction: 0.8]
[pos_bagging_fraction: 1]
[neg_bagging_fraction: 1]
[bagging_freq: 5]
[bagging_seed: 400]
[bagging_by_query: 0]
[feature_fraction: 0.8]
[feature_fraction_bynode: 1]
[feature_fraction_seed: 30056]
[extra_trees: 0]
[extra_seed: 12879]
[early_stopping_round: 0]
[early_stopping_min_delta: 0]
[first_metric_only: 0]
[max_delta_step: 0]
[lambda_l1: 0.1]
[lambda_l2: 0.1]
[linear_lambda: 0]
[min_gain_to_split: 0]
[drop_rate: 0.1]
[max_drop: 50]
[skip_drop: 0.5]
[xgboost_dart_mode: 0]
[uniform_drop: 0]
[drop_seed: 17869]
[top_rate: 0.2]
[other_rate: 0.1]
[min_data_per_group: 100]
[max_cat_threshold: 32]
[cat_l2: 10]
[cat_smooth: 10]
[max_cat_to_onehot: 4]
[top_k: 20]
[monotone_constraints: ]
[monotone_constraints_method: basic]
[monotone_penalty: 0]
[feature_contri: ]
[forcedsplits_filename: ]
[refit_decay_rate: 0.9]
[cegb_tradeoff: 1]
[cegb_penalty_split: 0]
[cegb_penalty_feature_lazy: ]
[cegb_penalty_feature_coupled: ]
[path_smooth: 0]
[interaction_constraints: ]
[verbosity: -1]
[saved_feature_importance_type: 0]
[use_quantized_grad: 0]
[num_grad_quant_bins: 4]
[quant_train_renew_leaf: 0]
[stochastic_rounding: 1]
[linear_tree: 0]
[max_bin: 255]
[max_bin_by_feature: ]
[min_data_in_bin: 3]
[bin_construct_sample_cnt: 200000]
[data_random_seed: 175]
[is_enable_sparse: 1]
[enable_bundle: 1]
[use_missing: 1]
[zero_as_missing: 0]
[feature_pre_filter: 1]
[pre_partition: 0]
[two_round: 0]
[header: 0]
[label_column: ]
[weight_column: ]
[group_column: ]
[ignore_column: ]
[categorical_feature: ]
[forcedbins_filename: ]
[precise_float_parser: 0]
[parser_config_file: ]
[objective_seed: 16083]
[num_class: 1]
[is_unbalance: 0]
[scale_pos_weight: 1]
[sigmoid: 1]
[boost_from_average: 1]
[reg_sqrt: 0]
[alpha: 0.9]
[fair_c: 1]
[poisson_max_delta_step: 0.7]
[tweedie_variance_power: 1.5]
[lambdarank_truncation_level: 30]
[lambdarank_norm: 1]
[label_gain: ]
[lambdarank_position_bias_regularization: 0]
[eval_at: ]
[multi_error_top_k: 1]
[auc_mu_weights: ]
[num_machines: 1]
[local_listen_port: 12400]
[time_out: 120]
[machine_list_filename: ]
[machines: ]
[gpu_platform_id: -1]
[gpu_device_id: -1]
[gpu_use_dp: 0]
[num_gpu: 1]

end of parameters

pandas_categorical:[]
