tree
version=v4
num_class=1
num_tree_per_iteration=1
label_index=0
max_feature_idx=90
objective=regression
feature_names=open high low close volume trading_days weekly_return weekly_volatility avg_daily_volume open_close_ratio high_low_ratio open_lag_1 high_lag_1 low_lag_1 close_lag_1 volume_lag_1 weekly_return_lag_1 weekly_volatility_lag_1 avg_daily_volume_lag_1 open_close_ratio_lag_1 high_low_ratio_lag_1 open_lag_4 high_lag_4 low_lag_4 close_lag_4 volume_lag_4 weekly_return_lag_4 weekly_volatility_lag_4 avg_daily_volume_lag_4 open_close_ratio_lag_4 high_low_ratio_lag_4 open_lag_12 high_lag_12 low_lag_12 close_lag_12 volume_lag_12 weekly_return_lag_12 weekly_volatility_lag_12 avg_daily_volume_lag_12 open_close_ratio_lag_12 high_low_ratio_lag_12 sma_4 ema_4 price_sma_4_ratio price_ema_4_ratio sma_12 ema_12 price_sma_12_ratio price_ema_12_ratio sma_26 ema_26 price_sma_26_ratio price_ema_26_ratio sma_52 ema_52 price_sma_52_ratio price_ema_52_ratio volatility_4w volatility_12w volatility_26w atr_4w atr_pct_4w atr_12w atr_pct_12w atr_26w atr_pct_26w roc_1w roc_4w roc_12w roc_26w rsi_14w macd macd_signal macd_histogram volume_sma_4 volume_ratio_4 volume_sma_12 volume_ratio_12 volume_sma_26 volume_ratio_26 obv obv_sma_12 resistance_12w support_12w price_position_12w resistance_26w support_26w price_position_26w resistance_52w support_52w price_position_52w
feature_infos=[0.21225895391337701:151.97999572753906] [0.22119859902439301:152.94000244140625] [0.19827646633150409:151.08999633789062] [0.21065445244312286:151.55999755859375] [3789800:12183876000] [1:5] [-0.1755912077231031:0.40714916070221463] [0.0096053381725797055:0.67083371439949535] [947450:2436775200] [0.73462738164291719:1.2288859974125221] [1.0096542093910887:1.7343221726490854] [0.21225895391337701:151.97999572753906] [0.22119859902439301:152.94000244140625] [0.19827646633150409:151.08999633789062] [0.21065445244312286:151.55999755859375] [3789800:12183876000] [-0.1755912077231031:0.40714916070221463] [0.0096053381725797055:0.67083371439949535] [947450:2436775200] [0.73462738164291719:1.2288859974125221] [1.0096542093910887:1.7343221726490854] [0.21225895391337701:151.97999572753906] [0.22119859902439301:152.94000244140625] [0.19827646633150409:151.08999633789062] [0.21065445244312286:151.55999755859375] [3789800:12183876000] [-0.1755912077231031:0.40714916070221463] [0.0096053381725797055:0.67083371439949535] [947450:2436775200] [0.73462738164291719:1.2288859974125221] [1.0096542093910887:1.7343221726490854] [0.21225895391337701:151.97999572753906] [0.22119859902439301:152.94000244140625] [0.19827646633150409:151.08999633789062] [0.21065445244312286:151.55999755859375] [3789800:12183876000] [-0.1755912077231031:0.40714916070221463] [0.0096053381725797055:0.67083371439949535] [947450:2436775200] [0.73462738164291719:1.2288859974125221] [1.0096542093910887:1.7343221726490854] [0.21833335235714912:150.38750076293945] [0.22079620823128845:149.95400922492897] [0.80897586307450886:1.3357176932167789] [0.84468417511293326:1.2670240872461556] [0.22874381144841513:149.01416651407877] [0.23947716841039818:147.73918591083341] [0.70154978377863275:1.8613954852907597] [0.72329384270592523:1.6603148260680058] [0.25378332573633927:146.7953843336839] [0.26433088460806764:144.35700397502185] [0.60623890604030028:2.2035129935498698] [0.64281793985194735:2.0138329271261819] [0.29411202210646409:143.58384587214545] [0.28162661029558267:140.37586341265487] [0.48520396828420248:2.7582094099434733] [0.5389978763610439:2.3462572909127015] [0.0029006278246957369:1.2841422331781245] [0.035506935718154838:0.93314878176372262] [0.06681621767411651:0.7355352846498785] [0.0098069169333392797:11.373636544810889] [0.012153108391556415:0.24999998867111831] [0.011965766137095157:8.0053843896090591] [0.017656097481159035:0.20986360778602878] [0.015019017919290945:6.1667545301299693] [0.018286847947200518:0.1872650294996436] [-0.1755912077231031:0.40714916070221463] [-0.33762169374054263:0.9130250326766256] [-0.43031731175494525:1.89147034886496] [-0.56140152053846204:4.0382689187877991] [1.7995855356866315:100] [-4.8218234363779118:8.2930253007964865] [-4.1884927669926544:7.4650835778232461] [-2.1415747976757382:1.9897912584915436] [5573750:7996681000] [0.23835742680193373:2.9383555616577275] [7037091.666666667:6717395666.666667] [0.21111108986286597:6.3677277924815785] [7232919.230769231:5128438615.3846149] [0.22089552949631167:9.3715447176446105] [-45318180000:38256962400] [-43252633000:36039047400] [0.26314617404072455:152.94000244140625] [0.19827646633150409:143.80999755859375] [0:1.0000000000000013] [0.30509370731401148:152.94000244140625] [0.19827646633150409:140.33000183105469] [0:1.0000000000000004] [0.34887486909966231:152.94000244140625] [0.19827646633150409:132.02999877929688] [0:1.0000000000000004]
tree_sizes=2785 2897 2913 2886 2907 2933 2926 2900 2924 2923 2895 2904 2893 2917 2880 2914 2892 2917 2905 2927 2945 2934

Tree=0
num_leaves=31
num_cat=0
split_feature=63 45 38 46 83 89 78 71 63 81 71 81 89 3 59 81 41 81 35 78 87 69 89 67 87 64 81 56 81 84
split_gain=3.36678 2.9873 3.36437 1.70108 6.29342 6.40894 1.50582 1.46643 1.44471 1.35747 1.2331 1.1383 0.755997 0.692595 0.686444 0.588522 1.17617 0.515801 1.56556 0.50549 0.437784 0.939251 0.626244 0.506997 0.392446 0.392041 0.777099 0.390879 0.335605 0.318616
threshold=0.062922198190633161 0.2888566938539347 354872280.00000006 6.3114532361794939 2.1394976987512861 1.7139028391259192 892041817.30769241 0.018092894267427887 0.12316204052559999 4200441037.5000005 0.09982970363379097 -9874065045.8333321 7.1096000966346322 1.7563334703445437 0.29223416792020007 -5027266220.833333 11.24346446990967 -1311358930.2916663 479983000.00000006 89642848.076923087 0.49656263334464285 -0.07876917209647509 55.579028822795614 -0.037349297862024837 0.5725777910321187 1.1060448666417424 9725587062.5000019 1.2472250588520497 1218891166.666667 0.69857898199145863
decision_type=2 2 2 2 2 2 2 2 2 2 2 2 2 2 2 2 2 2 2 2 2 2 2 2 2 2 2 2 2 2
left_child=12 -2 3 4 7 -6 8 13 9 14 11 -4 29 -3 -5 16 -14 18 -16 -9 22 23 28 -22 -18 -11 -27 -23 -17 -1
right_child=1 2 10 6 5 -7 -8 19 -10 25 -12 -13 15 -15 17 20 24 -19 -20 -21 21 27 -24 -25 -26 26 -28 -29 -30 -31
leaf_value=0.049219748093153277 0.066432734855113779 0.057224414405701869 0.043767370729320458 0.04629589330596217 0.086745932308637488 0.054582227893252171 0.038635749115289664 0.046778761068582864 0.060577912035840689 0.03902530809754174 0.0510314732348651 0.034263855422931741 0.030570772159560895 0.04779724675646882 0.065910612729682752 0.047678815472292843 0.047450432073725506 0.049332055295801903 0.04837133112853377 0.039793964667652434 0.045177471296269846 0.045177925084476669 0.043649631497177536 0.039411306606268438 0.041298944136980695 0.048389161828478189 0.03796192974011571 0.042252867221818993 0.045643383947587234 0.04620346620485194
leaf_weight=147 22 40 65 168 23 49 43 54 23 40 25 64 20 41 20 434 43 282 37 48 60 4289 206 115 62 56 26 118 371 228
leaf_count=147 22 40 65 168 23 49 43 54 23 40 25 64 20 41 20 434 43 282 37 48 60 4289 206 115 62 56 26 118 371 228
internal_value=0.0456938 0.0482047 0.0478351 0.0489496 0.0524498 0.0649688 0.0476574 0.0474892 0.048261 0.0478004 0.0409949 0.0390085 0.0452289 0.0525227 0.0489441 0.0450856 0.0416875 0.0502413 0.0546376 0.0435382 0.0451625 0.0449544 0.046101 0.0413583 0.043865 0.0430894 0.0451385 0.0450984 0.0467346 0.0473998
internal_weight=7219 1126 1104 950 255 72 695 183 652 629 154 129 6093 81 507 5718 125 339 57 102 5593 4582 1011 175 105 122 82 4407 805 375
internal_count=7219 1126 1104 950 255 72 695 183 652 629 154 129 6093 81 507 5718 125 339 57 102 5593 4582 1011 175 105 122 82 4407 805 375
is_linear=0
shrinkage=1


Tree=1
num_leaves=31
num_cat=0
split_feature=50 58 89 42 55 83 84 51 72 80 87 55 17 73 80 83 72 60 51 80 89 1 60 80 74 73 65 55 85 52
split_gain=3.05577 2.30074 2.20178 1.81701 2.38807 1.3093 1.17996 1.175 0.963554 0.934505 0.932894 0.797036 0.745176 0.827563 0.736503 1.64062 0.593822 0.585697 0.54606 0.902122 0.694811 0.54167 0.519348 0.433149 0.431267 0.422147 0.401754 0.396201 0.370966 0.35065
threshold=0.29305379965386363 0.27212819325649706 0.26475068406712898 9.9038981453072825 1.4519140632175003 10.612851405650568 0.51120223184531233 0.87532306048700359 0.085189996310233759 9219850150.0000019 0.47409621726589468 0.94666941829704176 0.14657817631228229 0.0026113025004848999 -989966349.99999988 15.617605411938582 0.018519515041133538 0.2942144789041608 0.94859212360953438 -825669049.99999988 24.443593286469739 8.1024104417925926 1.0124324674485703 1506993150.0000002 1067776537.5000001 -0.00057302526176942678 0.059118806891235949 1.2401888142625455 2.8477129298076553 1.0112233777411872
decision_type=2 2 2 2 2 2 2 2 2 2 2 2 2 2 2 2 2 2 2 2 2 2 2 2 2 2 2 2 2 2
left_child=-1 7 11 4 6 26 12 22 16 10 14 -3 13 27 15 -7 -8 -10 19 -12 25 28 -2 29 -11 -20 -5 -4 -9 -23
right_child=1 2 3 5 -6 9 8 21 17 24 18 -13 -14 -15 -16 -17 -18 -19 20 -21 -22 23 -24 -25 -26 -27 -28 -29 -30 -31
leaf_value=0.015619646996810697 -0.0080028822515820722 0.00072715708079354913 0.0049691288784150071 0.0004497899979991148 0.018431226437418527 0.0033284291950211528 0.0019677868910385628 0.00058473459204157576 0.012356117007990865 -0.006468596707468164 0.004061081388043869 -0.0089742282346125645 -0.00096208911010646719 0.017269883620051239 0.0028590335594329708 0.020899389237072782 -0.0039041082497561748 0.0032893297640523597 0.0054770642888679446 -0.0069802690306303029 -0.0010991631841655923 0.00042079372071933559 -0.00048363804119039446 -0.0013718811345949217 0.00017772434780093295 0.001586691404313509 -0.006765434791114285 0.011834635929911817 0.0054018404321030666 -0.00061811468490895454
leaf_weight=31 76 30 99 25 29 42 92 128 23 51 28 65 25 22 219 20 80 92 96 52 190 1146 35 1288 44 279 69 29 60 2754
leaf_count=31 76 30 99 25 29 42 92 128 23 51 28 65 25 22 219 20 80 92 96 52 190 1146 35 1288 44 279 69 29 60 2754
internal_value=-1.85933e-05 -8.69489e-05 0.00151881 0.00195877 0.00449518 0.00083705 0.00360578 -0.000585671 0.0016088 0.00136088 0.00184894 -0.00586051 0.00684948 0.0081845 0.00425692 0.00910152 -0.000734956 0.00515529 0.000791637 -0.00305313 0.00134532 -0.000479463 -0.00567952 -0.000575779 -0.00334077 0.00259715 -0.00479492 0.00657165 0.00215074 -0.00031155
internal_weight=7219 7188 1701 1606 491 1115 462 5487 287 1021 926 95 175 150 281 62 172 115 645 80 565 5376 111 5188 95 375 94 128 188 3900
internal_count=7219 7188 1701 1606 491 1115 462 5487 287 1021 926 95 175 150 281 62 172 115 645 80 565 5376 111 5188 95 375 94 128 188 3900
is_linear=0
shrinkage=0.05


Tree=2
num_leaves=31
num_cat=0
split_feature=63 45 38 65 88 83 89 74 81 71 71 81 35 60 81 89 65 81 87 59 43 60 59 87 89 81 58 81 41 87
split_gain=2.83715 2.55453 2.85695 1.93334 1.66193 4.85483 6.1834 1.43837 1.28025 1.08765 1.04504 0.987566 0.968738 0.824727 0.814741 0.582747 0.670266 0.940294 0.539757 0.461462 0.352259 0.347416 0.336242 0.326872 0.55558 0.359666 0.331777 0.349456 0.522088 0.362453
threshold=0.062922198190633161 0.2888566938539347 354872280.00000006 0.12781158295150633 9.3050377389446783 2.1394976987512861 1.7139028391259192 651048462.50000012 -1311358930.2916663 0.018092894267427887 0.09982970363379097 -9874065045.8333321 302415650.00000006 0.15663747119422503 9725587062.5000019 7.1096000966346322 0.061774145683831834 -4739713874.999999 0.39402252501132023 0.40413848801834357 1.0114601862568446 0.98900676804022936 0.2947130706575854 0.49656263334464285 55.579028822795614 -875384570.83333313 0.4066879839843241 1097195354.166667 16.847744941711429 0.50002305451805718
decision_type=2 2 2 2 2 2 2 2 2 2 2 2 2 2 2 2 2 2 2 2 2 2 2 2 2 2 2 2 2 2
left_child=15 -2 3 4 5 9 -7 8 12 13 11 -4 -6 -3 20 -1 23 -18 -19 -11 22 -20 -10 24 -17 -25 27 29 -29 -27
right_child=1 2 10 -5 7 6 -8 -9 14 19 -12 -13 -14 -15 -16 16 17 18 21 -21 -22 -23 -24 25 -26 26 -28 28 -30 -31
leaf_value=0.0014613644899805385 0.019145432808246821 0.011137002803676454 -0.0017484530621993653 0.015266705797895359 0.018559582942902154 0.037307617470189243 0.0070794453248759813 -0.0040895841860957623 0.00084350531549445883 0.0014591400651953277 0.0048737838556359254 -0.010606670209574232 0.0034894043653094921 0.00070509924723284091 -0.0070611923761751466 0.00094013437315475896 -0.013732732152241973 0.0037882250396417227 -0.0064097063493977402 -0.0052202755308113392 0.0002698536230396358 -0.0013908332554584991 0.0044201137993582496 -0.0023600610082320592 -0.0019656211157880223 -0.0017603499654142265 0.005070297041429756 0.0019731864311343383 -0.0014797288558707823 -1.4207473473126287e-05
leaf_weight=375 22 37 65 31 20 24 59 107 110 47 25 64 25 41 26 805 20 30 61 55 189 87 179 289 206 340 26 118 1332 2404
leaf_count=375 22 37 65 31 20 24 59 107 110 47 25 64 25 41 26 805 20 30 61 55 189 87 179 289 206 340 26 118 1332 2404
internal_value=-1.72577e-05 0.00228769 0.00194553 0.00297278 0.00255102 0.00591319 0.0159147 0.00119476 0.00223434 0.00126736 -0.00435678 -0.00618677 0.0103244 0.00572551 0.00150019 -0.000444069 -0.000569929 -0.00343148 -0.00223891 -0.00209512 0.00197771 -0.00349612 0.00307683 -0.000466321 0.000342981 -0.000648893 -0.000530468 -0.000566502 -0.00119517 -0.000232445
internal_weight=7219 1126 1104 950 919 263 83 656 549 180 154 129 45 78 504 6093 5718 198 178 102 478 148 289 5520 1011 4509 4220 4194 1450 2744
internal_count=7219 1126 1104 950 919 263 83 656 549 180 154 129 45 78 504 6093 5718 198 178 102 478 148 289 5520 1011 4509 4220 4194 1450 2744
is_linear=0
shrinkage=0.05


Tree=3
num_leaves=31
num_cat=0
split_feature=54 63 38 65 80 48 68 51 71 87 51 58 67 53 89 59 78 59 86 80 86 82 81 62 80 41 87 54 45 2
split_gain=2.57913 1.90941 2.64851 1.7444 1.48807 1.67134 0.971586 1.04386 0.948132 0.988777 0.903055 0.754958 0.648337 0.578016 1.11386 1.78374 0.851137 0.579152 0.637215 1.31592 0.565075 0.520046 0.41248 0.379674 0.338543 0.45196 0.336512 0.316367 0.299198 0.29606
threshold=0.30332833900619377 0.062922198190633161 354872280.00000006 0.12781158295150633 9219850150.0000019 1.2349226412391892 0.32904817226591493 1.2486590080999498 0.09982970363379097 0.34784593381529305 0.89910016992081021 0.5281982296189186 -0.031613348722197392 7.5182105853007402 1.4596664905548098 0.32724029651558656 892041817.30769241 0.30943488313561507 20.004690706549187 -104853993.49999999 1.308640751024664 11.210018699967971 1370252691.666667 0.75035276055197531 1548650250.0000002 16.602486610412601 0.48640680398459663 16.842051508979491 18.364410161972049 122.71794429767276
decision_type=2 2 2 2 2 2 2 2 2 2 2 2 2 2 2 2 2 2 2 2 2 2 2 2 2 2 2 2 2 2
left_child=-1 10 3 4 5 6 7 11 9 -4 12 13 23 14 20 -16 17 -15 -19 -20 -3 -12 26 -2 29 -26 -17 28 -27 -23
right_child=1 2 8 -5 -6 -7 -8 -9 -10 -11 21 -13 -14 16 15 22 -18 18 19 -21 -22 24 -24 -25 25 27 -28 -29 -30 -31
leaf_value=0.014124189444884333 -0.0048643888142878844 0.0050106025752400781 -0.00089316532142434701 0.014505824873110107 -0.0057503138995959983 0.016538591637398323 -0.0047100186516507055 0.012471425959515614 0.0046310655642820301 -0.0097141789034883765 0.0012633207386527805 -0.0022665228922595961 -0.0070507170487475431 0.00075532400902356654 0.022293972302302349 0.0079383261248941323 -0.0073378677281858698 0.0024924542388880342 0.018729546547854116 0.004151108438314728 -0.003206436916665543 -0.00015296476380170939 0.010295608940583616 0.00094589621549402464 0.0015727735494797672 -0.0024300704759988873 2.243062619350823e-06 -0.0012311833941699519 -0.0094004602111005184 -0.0028092766084788401
leaf_weight=32 45 43 58 31 52 22 43 28 25 74 478 71 85 225 20 22 22 177 21 64 40 3943 32 72 136 56 37 1134 23 108
leaf_count=32 45 43 58 31 52 22 43 28 25 74 478 71 85 225 20 22 22 177 21 64 40 3943 32 72 136 56 37 1134 23 108
internal_value=-1.61317e-05 -7.99825e-05 0.00182902 0.00282642 0.00242547 0.00292221 0.00255987 0.00295642 -0.00417233 -0.00587974 -0.000428406 0.00260418 -0.00371698 0.00310347 0.00544305 0.00872294 0.00220104 0.00264364 0.0042453 0.00782937 0.000991322 -0.000314481 0.00566421 -0.00124838 -0.000455093 -0.00114203 0.00305449 -0.00145063 -0.00453195 -0.000225084
internal_weight=7219 7187 1107 950 919 867 845 802 157 132 6080 774 202 703 194 111 509 487 262 85 83 5878 91 117 5400 1349 59 1213 79 4051
internal_count=7219 7187 1107 950 919 867 845 802 157 132 6080 774 202 703 194 111 509 487 262 85 83 5878 91 117 5400 1349 59 1213 79 4051
is_linear=0
shrinkage=0.05


Tree=4
num_leaves=31
num_cat=0
split_feature=63 46 38 65 88 83 89 74 81 80 59 71 81 51 80 71 67 74 82 56 89 78 87 80 58 80 54 88 23 65
split_gain=2.33301 1.84526 2.25302 1.5731 1.41306 4.11057 5.50055 1.21135 1.11455 1.03753 0.841676 0.830586 0.93343 0.818793 0.682133 0.640759 0.620499 0.566017 0.481903 0.385335 0.346527 0.487099 0.40344 0.538742 0.408045 0.320654 0.397874 0.463759 0.310158 0.283764
threshold=0.062922198190633161 0.28892471119828694 354872280.00000006 0.12781158295150633 9.3050377389446783 2.1394976987512861 1.7139028391259192 651048462.50000012 -1311358930.2916663 30383498.000000004 0.3017242134459579 0.09982970363379097 -9874065045.8333321 0.907413122409788 9219850150.0000019 0.023932333290403566 -0.033036569134261944 70514912.500000015 11.210018699967971 1.2472250588520497 61.963412997230684 12277425.000000002 0.49108969009743181 -1516118035.9999998 0.21644671372153917 -614379016.99999988 39.283412271945046 12.303356973801264 10.309518774014391 0.07624257744659052
decision_type=2 2 2 2 2 2 2 2 2 2 2 2 2 2 2 2 2 2 2 2 2 2 2 2 2 2 2 2 2 2
left_child=13 -2 3 4 5 9 -7 8 10 15 -6 12 -4 16 25 17 28 -3 -15 20 21 -20 -23 -24 -25 -10 27 -27 -1 -28
right_child=1 2 11 -5 7 6 -8 -9 14 -11 -12 -13 -14 18 -16 -17 -18 -19 19 -21 -22 22 23 24 -26 26 29 -29 -30 -31
leaf_value=-0.0060531973282331245 0.016088346740255107 0.013694798886352243 -0.0011398853585889389 0.013782865666691513 0.0028906020799582179 0.034788475556615968 0.0062747988783692955 -0.0037891980572790605 -0.0029194803071800166 -0.0050329201274348506 0.016900530980096608 0.0044004347991658394 -0.0097435877543646 0.0012183392958966797 -0.0053596228589317058 -0.0001760829222173645 -0.0057885641276309678 0.0036257731718574641 0.0030142890345863519 -0.0031981297660782352 -0.0014176590306156697 0.00074407370774225872 -0.0030259939438384981 -0.00063539613454234654 0.00069377218647527375 -0.0018839380213761031 -0.0011602399328477701 0.0039334670782992321 0.0001267176494079888 0.0049367218040478177
leaf_weight=24 23 21 65 31 24 24 59 107 32 49 21 25 64 491 35 61 120 48 115 122 665 790 200 2716 730 38 109 267 120 23
leaf_count=24 23 21 65 31 24 24 59 107 32 49 21 25 64 491 35 61 120 48 115 122 665 790 200 2716 730 38 109 267 120 23
internal_value=-1.5134e-05 0.00207495 0.00177678 0.00269022 0.00230872 0.00541674 0.0146118 0.00105915 0.00201372 0.0011194 0.00956241 -0.00381778 -0.00545136 -0.000402235 0.00132805 0.00347887 -0.00312711 0.006778 -0.000277914 -0.0004165 -0.00035042 -0.000193347 -0.000277696 -0.000500474 -0.000352362 0.00183882 0.00219928 0.00319191 -0.000872056 -5.71075e-05
internal_weight=7219 1126 1103 949 918 262 83 656 549 179 45 154 129 6093 504 130 264 69 5829 5338 5216 4551 4436 3646 3446 469 437 305 144 132
internal_count=7219 1126 1103 949 918 262 83 656 549 179 45 154 129 6093 504 130 264 69 5829 5338 5216 4551 4436 3646 3446 469 437 305 144 132
is_linear=0
shrinkage=0.05


Tree=5
num_leaves=31
num_cat=0
split_feature=13 72 53 89 87 87 51 74 74 63 55 56 47 59 49 76 73 68 59 59 3 58 80 53 89 73 64 65 90 38
split_gain=2.09731 2.45547 2.38292 8.00105 1.05358 0.855208 0.919062 0.767446 0.716447 0.792282 0.656607 0.614206 0.667201 0.520284 0.884093 0.681171 0.581102 0.484953 0.468898 0.531026 0.459939 0.443363 0.395038 0.375394 0.366887 0.366224 0.363416 0.494485 0.43201 0.328538
threshold=7.9711836928506932 0.085189996310233759 2.0683192198093123 2.1399021262994657 0.32816423933552302 0.49108969009743181 0.95134514511273993 1394172812.5000002 72936912.500000015 0.075829570577473041 1.1107934066652192 1.0041861060594619 1.0390367172656638 0.31600357603003654 24.36267053163969 615541629.66666687 -0.17110344162470267 -0.14951201596893157 0.57425003967981747 0.45777862109507156 0.30440606176853185 0.40118827445627619 1548650250.0000002 0.36720601870463448 54.447370110142657 0.0033293116583266646 3.1908473501559689 0.051645674748996381 0.4349569042744667 43352659.000000007
decision_type=2 2 2 2 2 2 2 2 2 2 2 2 2 2 2 2 2 2 2 2 2 2 2 2 2 2 2 2 2 2
left_child=1 4 -3 -4 7 10 11 -1 25 21 13 12 29 15 16 24 -15 -17 19 22 -9 -10 26 -11 -2 -6 27 -8 -29 -7
right_child=5 2 3 -5 8 6 18 20 9 23 -12 -13 -14 14 -16 17 -18 -19 -20 -21 -22 -23 -24 -25 -26 -27 -28 28 -30 -31
leaf_value=0.0089598877432574588 0.00092723724788197246 -0.0026388878649579095 0.038629061609034621 0.0054009675807395637 0.0087757163106458435 -0.0010378418175325367 -0.00016405263342085028 0.0046519960832946076 4.9530750787940385e-05 -0.0078292479927075057 0.0060669435425413053 -0.0057676450217555349 0.0069831103051160755 -0.0038345336730981994 0.011754795686088474 -0.011603945763364657 0.0036738570564987683 -0.00082378013173496948 -0.0073508056707649308 0.0049274324026698305 -0.0049489252591479157 0.0074877113272431746 -0.0011638235255029964 -0.0021174181269666857 -0.0015037850003775187 0.0012059957474675469 -0.0016795349046847534 -0.0048757439337436866 0.0024725189260349219 -0.0053862310397842133
leaf_weight=63 861 40 22 104 30 159 2848 30 230 44 58 129 21 35 26 20 93 24 24 47 21 22 1251 94 188 38 340 21 285 62
leaf_count=63 861 40 22 104 30 159 2848 30 230 44 58 129 21 35 26 20 93 24 24 47 21 22 1251 94 188 38 340 21 285 62
internal_value=5.30621e-06 0.00253157 0.00788756 0.0112684 0.000967358 -0.000281139 -0.000569568 0.00526706 -9.28748e-05 -0.000929617 0.000861408 -0.00296919 -0.00145503 0.000614813 0.00333708 0.000226411 0.00158036 -0.00585244 -0.000383618 -0.000347528 0.00059888 0.000721442 -0.000400934 -0.00397914 0.000486686 0.00462698 -0.00012633 3.95671e-05 0.00195046 -0.00228225
internal_weight=7230 738 166 126 572 6492 5187 114 458 390 1305 371 242 1247 154 1093 128 44 4816 4792 51 252 4745 138 1049 68 3494 3154 306 221
internal_count=7230 738 166 126 572 6492 5187 114 458 390 1305 371 242 1247 154 1093 128 44 4816 4792 51 252 4745 138 1049 68 3494 3154 306 221
is_linear=0
shrinkage=0.05


Tree=6
num_leaves=31
num_cat=0
split_feature=13 72 17 87 53 64 87 51 74 74 63 55 56 47 70 81 85 59 81 59 59 3 58 73 56 32 72 58 81 89
split_gain=1.89505 2.21573 2.572 0.950545 0.897353 1.25137 0.771915 0.829773 0.692638 0.648183 0.704096 0.592639 0.553821 0.602827 0.476443 0.470429 0.590701 0.550752 0.438852 0.423296 0.479437 0.415384 0.398088 0.392747 0.362388 0.355539 0.354128 0.349253 0.323401 0.451958
threshold=7.9711836928506932 0.085189996310233759 0.11348929938875395 0.32816423933552302 2.0683192198093123 0.18987245060990168 0.49108969009743181 0.95134514511273993 1394172812.5000002 71483725.000000015 0.075829570577473041 1.1107934066652192 1.0041861060594619 1.0390367172656638 21.667084108120878 370002391.66666669 19.059316055805475 0.36378933323711166 9725587062.5000019 0.57425003967981747 0.45777862109507156 0.30440606176853185 0.40118827445627619 0.0033293116583266646 1.2472250588520497 1.563864679798979 -0.0072568498580106366 0.23529593608886037 -5027266220.833333 24.443593286469739
decision_type=2 2 2 2 2 2 2 2 2 2 2 2 2 2 2 2 2 2 2 2 2 2 2 2 2 2 2 2 2 2
left_child=1 3 4 8 -3 -6 11 12 -1 23 22 14 13 -8 -2 17 -17 -16 -18 20 24 -10 -11 -5 27 26 -12 -9 -29 -30
right_child=6 2 -4 9 5 -7 7 19 21 10 25 -13 -14 -15 15 16 18 -19 -20 -21 -22 -23 -24 -25 -26 -27 -28 28 29 -31
leaf_value=0.0085126033873428649 -0.00608041700550223 -0.0022470944130907919 0.021639494719567994 0.0093327811180517594 0.018292967252322097 0.0042577123311846208 -0.0021694139449712699 -0.00052318201627309894 0.0044201690437538277 6.9036582880983071e-05 -0.0012426991515573772 0.0057641183777925485 -0.0054794861683852862 0.0066356094748276102 0.0016155048593711971 0.0034552528225805937 -0.00026641452751127102 0.010143491940165115 -0.0060269628902180844 -0.0069847905297975707 0.0046815839280708515 -0.0047026517829676798 0.0071150197584300013 0.0011352504770499917 -0.0027156660284715218 -0.001403838339726489 -0.0094670400845215611 -0.0031537696132233565 0.0015796118514382004 -0.00077389505144044915
leaf_weight=63 26 34 27 26 20 85 221 3624 30 233 22 58 129 21 435 105 626 20 35 24 47 21 22 37 161 79 39 55 599 306
leaf_count=63 26 34 27 26 20 85 221 3624 30 233 22 58 129 21 435 105 626 20 35 24 47 21 22 37 161 79 39 55 599 306
internal_value=5.0058e-06 0.00240639 0.00749443 0.000920006 0.0046973 0.00699353 -0.000267243 -0.000541295 0.00500409 -8.65112e-05 -0.000848732 0.000818164 -0.00282147 -0.00138226 0.000583666 0.000730152 -1.98427e-05 0.00200349 -0.000579865 -0.000364549 -0.000330204 0.000564014 0.000699076 0.00460703 -0.000380998 -0.00370213 -0.00658961 -0.000297851 0.00054753 0.000778319
internal_weight=7230 738 166 572 139 105 6492 5187 114 458 395 1305 371 242 1247 1221 766 455 661 4816 4792 51 255 63 4745 140 61 4584 960 905
internal_count=7230 738 166 572 139 105 6492 5187 114 458 395 1305 371 242 1247 1221 766 455 661 4816 4792 51 255 63 4745 140 61 4584 960 905
is_linear=0
shrinkage=0.05


Tree=7
num_leaves=31
num_cat=0
split_feature=13 72 79 71 53 61 87 69 50 74 50 35 80 78 65 83 72 59 59 59 52 0 65 47 80 68 86 56 58 69
split_gain=1.71226 2.00066 2.17288 0.936597 0.859823 1.24812 0.696905 0.82106 0.670731 0.655572 0.600849 0.731679 0.541868 0.780932 0.628151 0.507176 0.467797 0.404651 0.441849 0.375586 0.344983 0.325212 0.322327 0.40551 0.314267 0.34979 0.330517 0.312358 0.334369 0.339813
threshold=7.9711836928506932 0.085189996310233759 1.5813625242122493 -0.027041727990676275 2.0683192198093123 0.085994074980256449 0.49108969009743181 -0.098326654557262902 6.5023561873295632 72936912.500000015 0.29305379965386363 2646060200.0000005 308737200.00000006 683716981.15384626 0.082151117607262056 12.411602614191843 -0.75102479575499836 0.57425003967981747 0.45777862109507156 0.29951289345322252 0.91798510096672858 0.35503491544915572 0.067225730689697102 0.92302858391560705 2930048406.5000005 -0.038463186053498848 55.951624640317348 1.2472250588520497 0.23650702158564729 0.064580882551165911
decision_type=2 2 2 2 2 2 2 2 2 2 2 2 2 2 2 2 2 2 2 2 2 2 2 2 2 2 2 2 2 2
left_child=1 3 4 8 -3 -6 12 16 20 19 -11 22 13 14 -2 -14 -8 18 27 -5 -1 -13 -12 -24 26 -26 -17 28 -9 -30
right_child=6 2 -4 9 5 -7 7 17 -10 10 11 21 15 -15 -16 24 -18 -19 -20 -21 -22 -23 23 -25 25 -27 -28 -29 29 -31
leaf_value=0.012777426365309317 0.0021260673165193304 -0.0026749511447385498 0.021067286938857829 0.00011367916027115997 0.004200219488970685 0.01810930648017026 0.002845138832831932 -0.00054630058767057008 -0.00075236623013040776 0.0076507320896309992 0.001371954861944317 -0.0015572029600176643 0.0040864638555323058 -0.0051543824289768843 0.01082048497217543 0.00077049346365810911 -0.0047973458072512873 -0.0071568935237218082 0.0044480016547000147 0.0078458852029535103 0.0049317591254782562 -0.0082201449521726363 0.0035883676473135507 -0.003137545517914596 -0.0050622999234345573 0.00056886381973142973 -0.001803471140771611 -0.0025799669749678703 -0.00096591357421718063 0.0010986679281465149
leaf_weight=27 474 30 24 29 92 20 22 3815 28 20 170 34 67 35 22 416 158 22 47 38 36 46 27 117 70 43 178 161 279 683
leaf_count=27 474 30 24 29 92 20 22 3815 28 20 170 34 67 35 22 416 158 22 47 38 36 46 27 117 70 43 178 161 279 683
internal_value=4.79383e-06 0.00228747 0.00712247 0.000874563 0.00471725 0.00674253 -0.000253958 -0.000514384 0.0055232 0 -0.000748761 -0.00118965 0.000777288 0.0020075 0.00252389 -6.03841e-05 -0.00383444 -0.000393956 -0.000362964 0.00457878 0.00838835 -0.0054563 -8.52986e-05 -0.00184012 -0.00046096 -0.00287665 0 -0.000409856 -0.000335617 0.000494661
internal_weight=7230 738 166 572 142 112 6492 5187 91 481 414 394 1305 531 496 774 180 5007 4985 67 63 80 314 144 707 113 594 4938 4777 962
internal_count=7230 738 166 572 142 112 6492 5187 91 481 414 394 1305 531 496 774 180 5007 4985 67 63 80 314 144 707 113 594 4938 4777 962
is_linear=0
shrinkage=0.05


Tree=8
num_leaves=31
num_cat=0
split_feature=54 89 89 83 65 88 80 74 50 65 87 80 51 80 56 59 85 83 65 87 55 80 80 76 64 65 89 88 53 57
split_gain=1.56257 1.77364 4.64864 6.16568 2.00091 0.719527 0.706719 0.737248 0.778578 0.657933 0.521576 0.836549 0.658588 0.632829 0.54084 0.506379 0.464257 0.503888 0.379538 0.425337 0.33992 0.333299 0.369003 0.468958 0.382725 0.505111 0.329093 0.325838 0.440622 0.292386
threshold=7.873921636517708 1.4596664905548098 1.7139028391259192 1.9688878354932904 0.11819053840283471 10.461122070824869 59741475.500000007 100948462.50000001 0.29305379965386363 0.11213622176362391 0.47409621726589468 -9210323799.9999981 0.95134514511273993 245397750.00000003 1.0000129092423802 0.36728507806777105 2.8477129298076553 5.475420785223565 0.067903207685385422 0.44515552494388444 1.1401374490855976 1548650250.0000002 -1155804280.9999998 346410237.50000006 3.1908473501559689 0.049297338959530541 70.029227117484069 13.609091133151564 13.768081490810102 0.42606436874046122
decision_type=2 2 2 2 2 2 2 2 2 2 2 2 2 2 2 2 2 2 2 2 2 2 2 2 2 2 2 2 2 2
left_child=1 6 3 -3 5 16 7 9 -9 -1 11 -2 14 15 -12 -13 -4 -18 20 -20 -10 22 27 24 25 -24 -23 -14 -29 -21
right_child=10 2 4 -5 -6 -7 -8 8 18 -11 12 13 21 -15 -16 -17 17 -19 19 29 -22 26 23 -25 -26 -27 -28 28 -30 -31
leaf_value=0.0015792025670469901 -0.0089526377416034638 0.0025575507532697001 -0.0018142661775498573 0.040348286526416664 0.016125632007699089 -0.0076981141843568916 -0.0057083265791775407 0.0080261981475101274 0.0029972985372968834 0.011689384099823308 -0.00094042460176416208 0.0018965514743667635 0.00058234620734571598 -4.6336869880798488e-05 -0.0048584004019076527 0.0095569505761438009 0.0057294632540785453 0.00083994696952677738 -0.00042379163605176998 -0.0096859514962800569 -0.0021202381940606542 -0.00084611044952907538 -2.9932903693823004e-05 0.0042933530710761326 -0.0015687117490802618 0.0021335362964270219 -0.0052687923278228778 -0.0060163319427469081 -0.0010716925942186261 -0.0023870939262927212
leaf_weight=49 22 24 59 20 25 20 50 24 67 25 230 449 97 753 147 23 101 116 64 32 62 1234 2556 65 344 301 44 73 126 28
leaf_count=49 22 24 59 20 25 20 50 24 67 25 230 449 97 753 147 23 101 116 64 32 62 1234 2556 65 344 301 44 73 126 28
internal_value=4.73671e-06 0.00214056 0.00466229 0.0199011 0.00255237 0.00138403 -0.000142914 0.000637039 -0.000531498 0.00507345 -0.000247619 0.000669359 -0.000467767 0.00084696 -0.00248227 0.00228237 0.00206282 0.00314033 -0.0013659 -0.00334538 0.00049924 -0.000309772 -5.97368e-05 9.20363e-05 5.03032e-06 0.000196317 -0.00100269 -0.00175072 -0.00291278 -0.00637265
internal_weight=7230 766 365 44 321 296 401 351 277 74 6464 1247 5217 1225 377 472 276 217 253 124 129 4840 3562 3266 3201 2857 1278 296 199 60
internal_count=7230 766 365 44 321 296 401 351 277 74 6464 1247 5217 1225 377 472 276 217 253 124 129 4840 3562 3266 3201 2857 1278 296 199 60
is_linear=0
shrinkage=0.05


Tree=9
num_leaves=31
num_cat=0
split_feature=54 89 89 65 65 88 80 58 3 70 35 87 80 69 15 85 64 8 54 59 68 58 69 81 51 71 80 85 81 64
split_gain=1.41132 1.60258 4.19979 5.61188 1.8064 0.649914 0.637843 0.719319 0.687408 0.634635 0.896234 0.58915 0.508117 0.489506 0.487997 0.419643 0.393112 1.41391 0.392641 0.389491 0.303199 0.369256 0.32543 0.393271 0.302363 0.295199 0.325003 0.283576 0.412634 0.253107
threshold=7.873921636517708 1.4596664905548098 1.7139028391259192 0.074642221956331287 0.11819053840283471 10.461122070824869 59741475.500000007 0.41162928543448973 1.7563334703445437 21.667084108120878 459909000.00000006 0.47409621726589468 245397750.00000003 -0.040759837638965728 2101006600.0000002 2.8477129298076553 1.4390078498506484 15043790.000000002 6.3941741990469998 0.35466034072261859 0.21170744331321703 0.23257208334294793 0.067831040553870139 -4739713874.999999 0.67412480788065265 0.11226718296173123 2662807656.5000005 19.059316055805475 9725587062.5000019 3.9453864464393034
decision_type=2 2 2 2 2 2 2 2 2 2 2 2 2 2 2 2 2 2 2 2 2 2 2 2 2 2 2 2 2 2
left_child=1 6 3 -3 5 15 7 24 14 10 -2 12 16 19 -9 -4 -11 -18 -17 -13 21 25 23 -23 -1 -15 29 -14 -29 -27
right_child=9 2 4 -5 -6 -7 -8 8 -10 11 -12 13 27 20 -16 18 17 -19 -20 -21 -22 22 -24 -25 -26 26 -28 28 -30 -31
leaf_value=-0.0064389466508228445 0.00029352877605573881 0.038424157443924328 -0.0017237063563490277 0.0023607726798188016 0.015322562658869887 -0.0073151234389092785 -0.0054234799847635122 0.010546851123247268 -0.0023054798412107925 0.001060827546187984 -0.012549058385044932 -0.0024462250155106663 0.0025858313978794284 0.0010014734030074179 0.0022554432476646269 0.0050313180563255006 0.0022657911073716303 0.016580095027216631 0.0007100770468255514 0.0040327046074251412 -0.0020747358622649164 -0.0075727268066535236 0.0012459894947356468 -0.00024141362109920733 -0.00027602731572631259 -0.00032429473892295763 -0.0023923769681562742 -7.0086947990080092e-05 -0.0056530051359222231 -0.0025299450267109013
leaf_weight=22 28 20 59 24 25 20 50 39 29 317 25 395 92 330 36 113 133 20 104 24 224 20 697 225 225 2916 227 619 35 137
leaf_count=22 28 20 59 24 25 20 50 39 29 317 25 395 92 330 36 113 133 20 104 24 224 20 697 225 225 2916 227 619 35 137
internal_value=4.3954e-06 0.00203425 0.00443131 0.0189166 0.00242495 0.00131393 -0.000135719 0.000604612 0.00409908 -0.000235401 -0.00568236 -0.000189503 0.000799744 -0.000422031 0.00664186 0.00195976 0.00208727 0.00417921 0.00298462 -0.00206231 -0.000277041 -0.000187436 0.000692098 -0.000863133 -0.00084757 -0.000418341 -0.000562739 -4.90047e-06 -0.00037733 -0.000424988
internal_weight=7230 766 365 44 321 296 401 351 104 6464 53 6411 1216 5195 75 276 470 153 217 419 4776 4552 942 245 247 3610 3280 746 654 3053
internal_count=7230 766 365 44 321 296 401 351 104 6464 53 6411 1216 5195 75 276 470 153 217 419 4776 4552 942 245 247 3610 3280 746 654 3053
is_linear=0
shrinkage=0.05


Tree=10
num_leaves=31
num_cat=0
split_feature=54 63 53 80 70 79 89 47 35 73 51 73 79 80 60 74 45 64 60 63 52 69 65 17 55 64 76 57 63 32
split_gain=1.59995 0.995898 1.40033 1.18578 0.984434 0.880106 1.46318 1.19659 0.798545 0.779852 0.571978 0.666773 0.481194 0.474867 0.366742 0.417903 0.426421 0.345772 0.31917 0.298539 0.421171 0.370244 0.276913 0.258358 0.251099 0.244324 0.257419 0.240246 0.231765 0.226849
threshold=0.30332833900619377 0.062425417099856002 0.36720601870463448 9219850150.0000019 21.667084108120878 1.5813625242122493 1.7139028391259192 1.0875362464402609 91367400.000000015 -0.42070365412830252 0.89910016992081021 0.020362583367628685 0.75819510314728744 -28133911999.999996 0.61834517640864706 165710177.62500003 6.3777762452761335 1.1641260669076126 0.50794234273401317 0.033198092150413083 1.0082717469416995 -0.092740189758730926 0.11213622176362391 0.090005749187955925 1.2176765793810687 3.9453864464393034 10622233.333333336 0.48381992857188244 0.020834307544789678 60.19378386368809
decision_type=2 2 2 2 2 2 2 2 2 2 2 2 2 2 2 2 2 2 2 2 2 2 2 2 2 2 2 2 2 2
left_child=-1 10 13 4 -4 7 -7 8 29 -10 11 18 22 -3 15 -14 -17 -16 -2 21 24 -12 23 -11 -21 26 -22 -9 -23 -6
right_child=1 2 3 -5 5 6 -8 27 9 12 19 -13 14 -15 17 16 -18 -19 -20 20 25 28 -24 -25 -26 -27 -28 -29 -30 -31
leaf_value=0.011300545165179017 -0.0056900558474752092 -7.7789454226575986e-05 -0.0071128168887359088 -0.0045628611203529243 0.0013060281859385637 0.015832566216042575 0.0022605850168600163 -0.00049335796920264082 0.013228998889590239 0.005811013924085842 -0.006038140998195822 -0.0074250918397027526 0.00018320655366086698 -0.0078261796633521674 -0.00053684344626748408 0.011507450838923646 0.0026127246564178561 0.0043327869993997408 0.00015954356520038294 0.00080514032120956142 0.0037633994977168935 0.0019491686670889967 0.009346494750695886 0 0.0062358343172017735 -0.0021967912241474957 -0.00022052235078195081 -0.0048892722916664549 -0.00071398278102044726 -0.0032292139506047944
leaf_weight=31 29 34 27 68 278 32 55 80 23 80 32 59 32 52 117 31 27 52 110 961 41 84 45 24 22 156 2552 54 2086 30
leaf_count=31 29 34 27 68 278 32 55 80 23 80 32 59 32 52 117 31 27 52 110 961 41 84 45 24 22 156 2552 54 2086 30
internal_value=-1.51611e-05 -6.42347e-05 0.00129121 0.0017949 0.0022384 0.00250732 0.00732243 0.00202096 0.00281224 0.0042044 -0.000317278 -0.00296233 0.0036803 -0.00482458 0.00234443 0.00493416 0.00746448 0.000933612 -0.00102814 -0.00022813 4.30304e-05 -0.00068995 0.00596571 0.00444727 0.00093239 -0.000273194 -0.000155458 -0.00230446 -0.000608504 0.000847151
internal_weight=7304 7273 1141 1055 987 960 87 873 739 431 6132 198 408 86 259 90 58 169 139 5934 3732 2202 149 104 983 2749 2593 134 2170 308
internal_count=7304 7273 1141 1055 987 960 87 873 739 431 6132 198 408 86 259 90 58 169 139 5934 3732 2202 149 104 983 2749 2593 134 2170 308
is_linear=0
shrinkage=0.05


Tree=11
num_leaves=31
num_cat=0
split_feature=50 63 53 82 83 61 60 47 65 56 81 87 87 55 87 59 58 73 69 81 47 47 69 52 28 78 45 65 89 81
split_gain=1.45564 0.888837 1.31678 0.839408 2.07862 2.56743 0.736344 0.656 0.82422 0.601254 0.524202 0.454424 0.406821 0.329881 0.320878 0.320517 1.04423 0.290289 0.451368 0.48064 0.335082 0.283189 0.291105 0.26314 0.262063 0.260687 0.255399 0.656002 0.386588 0.30349
threshold=0.29305379965386363 0.062425417099856002 0.36720601870463448 7.7924230416901485 2.1394976987512861 0.090555803290981965 0.17273064680173641 0.80179873568576732 0.11213622176362391 1.0433184094811809 9725587062.5000019 0.49108969009743181 0.354255139294819 1.0545549927343389 0.76707626271646345 0.31600357603003654 0.34658970630904723 -0.00057302526176942678 -0.032070295055965585 -1311358930.2916663 1.0728567625120484 1.0506097396933132 0.11363958037294998 1.0325040344527359 89251451.600000009 546775319.23076928 17.94094260533651 0.06368322709775405 14.311798052612621 633327006.50000012
decision_type=2 2 2 2 2 2 2 2 2 2 2 2 2 2 2 2 2 2 2 2 2 2 2 2 2 2 2 2 2 2
left_child=-1 17 12 4 6 14 -4 -5 10 -8 11 15 -3 -13 -6 -9 -17 20 19 -19 26 22 -15 -21 -18 -23 27 -2 -28 -30
right_child=1 2 3 7 5 -7 9 8 -10 -11 -12 13 -14 21 -16 16 24 18 -20 23 -22 25 -24 -25 -26 -27 28 -29 29 -31
leaf_value=0.010779013248741436 0.0013724131222276842 1.293756548328543e-05 0.0040018721384067332 -0.0076634269546953394 0.0061793251272594827 0.020417281200059985 0.0024183449029773802 0.0011816932692530848 0.010585439424304403 -0.0052585020068267952 -0.0039546869462786342 -0.00219083574671109 -0.0071697961160629309 -0.00051216828398071158 -0.0016751581821497993 0.012243171562398489 0.00377307658810203 0.0031235824126915465 -0.0004209052965885055 -0.002299502928231759 0.0052475429525586908 0.0005192374598647952 0.0040721399571586421 -0.0062184796280641804 -0.0019729629004268945 -0.0049351410401018521 -0.0048637218688165375 -0.0061896719678964131 0.00056275278193576778 -0.00066310194792607946
leaf_weight=31 540 28 114 22 33 37 45 157 22 57 54 116 57 51 20 33 54 34 3123 225 31 84 97 56 30 29 44 30 893 1157
leaf_count=31 540 28 114 22 33 37 45 157 22 57 54 116 57 51 20 33 54 34 3123 225 31 84 97 56 30 29 44 30 893 1157
internal_value=-1.42904e-05 -6.11302e-05 0.00122 0.00170596 0.00391626 0.0103035 0.00122823 0.000795876 0.00105976 -0.00182363 0.000753955 0.00115276 -0.00474773 1.30794e-05 0.00312363 0.00270204 0.00469672 -0.000300098 -0.000604837 -0.00241181 8.6809e-05 0.00101221 0.00245937 -0.00310023 0.00166156 -0.000839476 2.46839e-05 0.000964622 -0.000228819 -0.000126667
internal_weight=7304 7273 1140 1055 306 90 216 749 727 102 705 651 85 377 53 274 117 6133 3438 315 2695 261 148 281 84 113 2664 570 2094 2050
internal_count=7304 7273 1140 1055 306 90 216 749 727 102 705 651 85 377 53 274 117 6133 3438 315 2695 261 148 281 84 113 2664 570 2094 2050
is_linear=0
shrinkage=0.05


Tree=12
num_leaves=31
num_cat=0
split_feature=54 58 53 80 87 55 7 59 55 55 60 59 47 65 80 38 38 42 64 4 73 74 74 71 35 80 82 47 72 58
split_gain=1.32937 0.824763 0.933106 0.653916 0.80999 0.749734 0.536076 1.53393 0.478151 0.445709 0.45768 0.442717 0.601631 0.417428 0.414182 0.39153 0.389129 0.357564 0.791647 0.987972 0.339791 0.356559 0.330006 0.329352 0.30777 0.303022 0.299 0.291407 0.270569 0.235723
threshold=0.30332833900619377 0.27212819325649706 0.36720601870463448 9219850150.0000019 0.47409621726589468 1.0353302474783532 0.10957915186929609 0.35466034072261859 1.1874055314803693 0.92782323406730238 2.0273924452957037 0.34903642959706177 1.0875362464402609 0.074642221956331287 -31357295999.999996 145711375.00000003 181537646.40000004 46.148914857934663 1.8142188586426748 67349650.000000015 -0.10404860084700189 617914400.00000012 1067776537.5000001 0.32922203307795433 1135536350.0000002 1309223815.0000002 18.76903602328759 0.93953761588542506 0.76094908260628746 0.20010729669555258
decision_type=2 2 2 2 2 2 2 2 2 2 2 2 2 2 2 2 2 2 2 2 2 2 2 2 2 2 2 2 2 2
left_child=-1 9 14 4 8 15 11 -8 17 10 29 -7 16 -14 -3 -6 28 18 20 -20 21 -4 -5 -9 -17 -11 -27 -22 -13 -2
right_child=1 2 3 22 5 6 7 23 -10 25 -12 12 13 -15 -16 24 -18 -19 19 -21 27 -23 -24 -25 -26 26 -28 -29 -30 -31
leaf_value=0.01030099867870043 -0.0082822477032231823 0.0010331760364699649 0.0018251686852383325 -0.005102123329715328 -0.0007335459577511857 -4.6574135815406059e-05 0.012873990069434668 -0.0035988136182667934 0.010831911991632994 -4.3110759990275579e-05 0.0013840637807159871 0.0011485391202009534 0.0014897754675260494 -0.0051617306517872299 -0.006463166044718166 -0.010659951192734588 0.0088623606951252192 -0.0012029902926486008 0.0034446160352536448 0.017860351087738625 0.0064048392743277539 -0.0045051660599935914 0.00032899301142911403 0.0035647097937734603 -0.0023606972698125353 0.00085903294689584908 -0.0011436869492945847 0.0023232367875154264 0.0059156298258459432 -0.0029978097550771693
leaf_weight=31 36 25 93 59 175 471 37 31 20 3829 38 82 88 32 60 20 38 47 32 20 67 29 50 33 30 213 1359 146 50 63
leaf_count=31 36 25 93 59 175 471 37 31 20 3829 38 82 88 32 60 20 38 47 32 20 67 29 50 33 30 213 1359 146 50 63
internal_value=-1.34865e-05 -5.82789e-05 0.000892139 0.00115778 0.00142464 0.00067783 0.00135209 0.00478431 0.00320114 -0.000356949 -0.00317592 0.000889424 0.00242634 -0.000245149 -0.00420098 -0.00188257 0.00434053 0.00283556 0.00333913 0.00910874 0.00242618 0.00027701 -0.00256694 1.66738e-05 -0.00579485 -0.000284461 -0.000869108 0.00363299 0.00299522 -0.0049763
internal_weight=7304 7273 1735 1650 1541 1087 862 101 454 5538 137 761 290 120 85 225 170 434 387 52 335 122 109 64 50 5401 1572 213 132 99
internal_count=7304 7273 1735 1650 1541 1087 862 101 454 5538 137 761 290 120 85 225 170 434 387 52 335 122 109 64 50 5401 1572 213 132 99
is_linear=0
shrinkage=0.05


Tree=13
num_leaves=31
num_cat=0
split_feature=54 58 53 42 79 52 72 51 46 81 78 21 59 87 17 80 59 54 54 71 62 74 64 58 80 82 71 86 87 64
split_gain=1.20013 0.745107 0.841886 0.64334 1.13993 0.606626 0.96097 0.527103 0.507117 0.565712 1.73422 0.495198 0.456308 0.432038 0.420628 0.371601 0.506424 0.375353 0.319995 0.411124 0.313515 0.301648 0.300268 0.293638 0.292407 0.30052 0.25824 0.225338 0.220319 0.220105
threshold=0.30332833900619377 0.27212819325649706 0.38917252306754779 9.9038981453072825 1.6460182465179527 1.0362323076907691 0.095715685369710549 0.87532306048700359 11.242168666487983 -1066543403.2499999 253263627.3269231 2.5580660786784031 0.59534285599795467 0.22247553274703447 0.082972743811361202 9219850150.0000019 0.35466034072261859 39.585000976762835 7.873921636517708 -0.053784149067151781 0.13258386161996816 75896000.000000015 0.96884544912709902 0.36909728660046137 1309223815.0000002 18.76903602328759 0.068855134253845054 15.300837510443074 0.47409621726589468 3.0988081343419736
decision_type=2 2 2 2 2 2 2 2 2 2 2 2 2 2 2 2 2 2 2 2 2 2 2 2 2 2 2 2 2 2
left_child=-1 7 13 4 5 18 20 -2 -5 10 -10 -8 15 -3 -13 16 28 -18 19 -4 23 -21 -17 -7 29 -26 -23 -27 -11 -9
right_child=1 2 3 8 -6 6 11 24 9 12 -12 14 -14 -15 -16 22 17 -19 -20 21 -22 26 -24 -25 25 27 -28 -29 -30 -31
leaf_value=0.0097876049180468713 -0.0037676842213708994 0.0029671954638289923 0.011349766927337216 -0.0033881238954584442 0.010962140978145319 -0.002898851860173789 -0.0033634733410896423 7.7962993280502306e-05 0.014622294601001793 0.0016619040764043564 0.00049635595853694467 0.0027008507577985443 -0.0059237010783625248 -0.0050547132939406702 0.0099548838413057502 0.0019893204967756963 0.0046490777705970182 -0.0018179424802890456 5.2694496526958621e-05 0.0092106173935777701 -0.0047157348405602768 0.00177216518087247 -0.0038835501840636176 0.0048324051061512732 0.00089795434755587402 -0.0053537097750561034 0.0080946017677585285 -0.0010065082935003539 -0.00032558140500581461 -0.0013408002847487472
leaf_weight=31 110 20 22 79 38 29 21 3535 29 202 89 69 28 85 30 29 126 26 46 23 79 105 77 21 213 31 20 1353 442 296
leaf_count=31 110 20 22 79 38 29 21 3535 29 202 89 69 28 85 30 29 126 26 46 23 79 105 77 21 213 31 20 1353 442 296
internal_value=-1.26492e-05 -5.52427e-05 0.000848074 0.00113 0.00261883 0.00192405 0.000220369 -0.000339156 0.000460897 0.000756108 0.00401976 0.00345796 0.000336247 -0.00347779 0.00495732 0.000536747 0.000911609 0.00350954 0.00386386 0.00486509 -0.00275296 0.00386037 -0.00222934 0.00025164 -0.000268686 -0.000837175 0.00282938 -0.00110787 0.000290221 -3.0384e-05
internal_weight=7304 7273 1735 1630 503 465 249 5538 1127 1048 118 120 930 105 99 902 796 152 216 170 129 148 106 50 5428 1597 125 1384 644 3831
internal_count=7304 7273 1735 1630 503 465 249 5538 1127 1048 118 120 930 105 99 902 796 152 216 170 129 148 106 50 5428 1597 125 1384 644 3831
is_linear=0
shrinkage=0.05


Tree=14
num_leaves=31
num_cat=0
split_feature=50 58 89 42 79 70 52 65 58 89 83 65 55 87 51 89 52 65 65 64 55 14 73 22 54 85 74 60 48 51
split_gain=1.1089 0.68432 0.700853 0.798175 0.953779 1.59811 0.559833 0.615541 0.568123 0.52766 0.556053 0.520453 0.382302 0.376075 0.423047 0.416149 0.384108 0.365928 0.342179 0.386169 0.338091 0.301838 0.295733 0.292451 0.287378 0.547211 0.28591 0.282884 0.240022 0.270104
threshold=0.29305379965386363 0.23257208334294793 0.26475068406712898 9.9038981453072825 1.6460182465179527 57.081040290637468 1.0362323076907691 0.072109479074019447 0.41886711895891998 8.84559800406136 11.111601022938411 0.061110028112839047 1.3139438145604527 0.2316057940980088 0.95134514511273993 24.443593286469739 0.97432804604960399 0.082151117607262056 0.094266298912174681 0.65507087975821798 0.91084980282840877 2.3536670207977299 0.11954961217761119 2.6439168322136566 7.873921636517708 7.9829716187029884 75896000.000000015 1.0512953067649482 0.99451689111836583 0.96908237442691847
decision_type=2 2 2 2 2 2 2 2 2 2 2 2 2 2 2 2 2 2 2 2 2 2 2 2 2 2 2 2 2 2
left_child=-1 11 20 4 6 -6 24 8 23 18 -11 28 -9 17 16 22 -15 -12 19 -5 -3 -13 -16 -8 25 26 -4 -23 -2 -30
right_child=1 2 3 9 5 -7 7 12 -10 10 13 21 -14 14 15 -17 -18 -19 -20 -21 -22 27 -24 -25 -26 -27 -28 -29 29 -31
leaf_value=0.0094086127009069091 0.00030579704160929073 0.0014735669670652297 0.0084938692221582165 0 0 0.019845932021514693 -0.0012167038153650615 -0.0046139909138157723 0.0095725227391760277 0.0073143310229173341 0.0014630895053578822 0.0014043750251824065 0.0026449848974357433 -0.00049423951706305334 0.0021930897078817832 -0.00077423099143172957 -0.0052889962840494556 0.0073421650000966053 0.0036766045701351773 -0.005176424479415135 -0.0048363887810257021 -0.0074038896927878586 8.9429247625925855e-05 0.0027107668948134645 0.0004335626003576473 0.012307605281542828 0.0026411051631050025 -0.0010575360849762138 -0.0027594725051713139 -0.00043041054274434133
leaf_weight=31 1171 27 26 59 20 20 80 74 22 30 153 20 23 141 382 390 61 33 20 93 83 54 306 112 56 21 138 29 130 3499
leaf_count=31 1171 27 26 59 20 20 80 74 22 30 153 20 23 141 382 390 61 33 20 93 83 54 306 112 56 21 138 29 130 3499
internal_value=-1.17749e-05 -5.27441e-05 0.000644033 0.000835535 0.00241371 0.00988882 0.00186128 0.000440933 0.00195223 0.000272307 0.000576577 -0.000390576 -0.00284035 0.000434797 0.000125327 0.000522518 -0.0019688 0.0025364 -0.00234388 -0.00317082 -0.00324224 -0.00390977 0.00126487 0.00104851 0.0036725 0.00462516 0.00360406 -0.0052506 -0.000313939 -0.000515295
internal_weight=7304 7273 2370 2260 592 40 552 311 214 1668 1496 4903 97 1466 1280 1078 202 186 172 152 110 103 688 192 241 185 164 83 4800 3629
internal_count=7304 7273 2370 2260 592 40 552 311 214 1668 1496 4903 97 1466 1280 1078 202 186 172 152 110 103 688 192 241 185 164 83 4800 3629
is_linear=0
shrinkage=0.05


Tree=15
num_leaves=31
num_cat=0
split_feature=58 58 68 65 70 54 65 90 60 51 73 51 56 58 90 60 74 81 76 86 65 80 49 8 54 82 73 80 83 53
split_gain=1.19168 0.861117 1.59843 0.697605 1.06305 0.947528 0.53015 0.511838 0.80196 0.463719 0.43757 0.62405 0.414962 0.363523 0.413391 0.371181 0.359566 0.266601 0.265934 0.320463 0.671576 0.262118 0.410165 0.846787 0.417802 0.381646 0.255308 0.232813 0.315883 0.212082
threshold=0.39563683339446759 0.47386075758332097 0.25445041651786265 0.10605578914172868 24.875006193571945 6.8085470754117567 0.063218181973617713 0.6538321692067639 0.57310357239779652 0.67412480788065265 -0.00057302526176942678 0.913104900282807 1.0460278890450259 0.27212819325649706 0.16245640170409717 0.71282068786673214 102606112.50000001 9725587062.5000019 48439320.833333336 20.004690706549187 0.069904257711847315 -4181162949.9999995 2.217368384966484 19736787.000000004 2.4572069456035366 8.175077495255664 -0.15807790474593186 1506993150.0000002 15.617605411938582 16.657698851365314
decision_type=2 2 2 2 2 2 2 2 2 2 2 2 2 2 2 2 2 2 2 2 2 2 2 2 2 2 2 2 2 2
left_child=9 2 7 6 -5 12 -3 -2 -9 -1 13 -12 16 14 15 -11 -6 18 -15 26 -21 -13 23 -23 -24 -26 -20 -16 -29 -30
right_child=1 3 -4 4 5 -7 -8 8 -10 10 11 21 -14 17 27 -17 -18 -19 19 20 -22 22 24 -25 25 -27 -28 28 29 -31
leaf_value=-0.0077910812154634666 0.0010527177032294984 0.0025025669361592958 0.016351296577743622 -0.007005933494752899 0.0096738007291456429 0.012566505604306794 -0.0037828720806788538 0.014804823618539754 0.0033718466942148934 -0.0090329057339465987 -0.0043006270605401775 -0.0021189440386729587 -0.0039723753324473528 -0.00040538454354814189 0.00039002400694487338 -0.0010104281872104672 0.00093315885709801746 -0.0018564942394595472 -0.0011518568358309124 0.0026247158973864374 0.012157028671585921 -0.00022811124355956965 -0.0074266176352992437 0.012139816253228271 0.0031600867705010431 -0.00044027148179227898 0.0023949210478394871 0.0030076036416540933 -0.005608480152547864 -0.00085811924582610867
leaf_weight=20 141 47 25 21 20 31 111 20 74 23 108 218 20 100 1895 43 32 53 67 90 24 42 21 20 75 3116 190 51 25 536
leaf_count=20 141 47 25 21 20 31 111 20 74 23 108 218 20 100 1895 43 32 53 67 90 24 42 21 20 75 3116 190 51 25 536
internal_value=-1.94122e-05 0.00223488 0.00431137 0.000301808 0.00312285 0.00524124 -0.00188113 0.00300285 0.00587068 -0.000202088 -0.000178561 -0.000553857 0.0020049 0.000256078 9.6393e-06 -0.00389122 0.00440303 0.0014564 0.00184011 0.00245879 0.00468424 -0.000436426 -0.000322807 0.00369415 -0.000402014 -0.000353987 0.00145074 0.00011448 -0.000730472 -0.00107968
internal_weight=7259 542 260 282 124 103 158 235 94 6717 6697 3600 72 3097 2573 66 52 524 471 371 114 3492 3274 62 3212 3191 257 2507 612 561
internal_count=7259 542 260 282 124 103 158 235 94 6717 6697 3600 72 3097 2573 66 52 524 471 371 114 3492 3274 62 3212 3191 257 2507 612 561
is_linear=0
shrinkage=0.05


Tree=16
num_leaves=31
num_cat=0
split_feature=58 58 51 65 58 64 0 63 31 65 87 51 28 58 71 62 71 38 84 51 87 51 61 42 64 65 58 60 63 72
split_gain=1.08474 0.88701 1.66 0.629373 0.678075 0.915798 0.751318 0.483213 0.962881 0.478887 0.465976 0.835204 0.448347 0.417617 0.357487 0.375276 0.332328 0.299789 0.259458 0.405424 0.319652 0.257969 0.255683 0.241818 0.336503 0.349688 0.226607 0.207766 0.200867 0.200505
threshold=0.40118827445627619 0.47386075758332097 1.1906832626824122 0.10605578914172868 0.67275483501661015 0.73496286347342321 1.9063329696655276 0.084880542302024034 2.7205362699537603 0.063218181973617713 0.46785848847457473 0.87532306048700359 92717750.000000015 0.27212819325649706 -0.55121323455935556 0.86456326848323639 1.0000000180025095e-35 242690720.00000003 0.70318350076859659 1.1135284134756207 0.78244201129497493 0.96224904081703044 0.03207384545638562 46.148914857934663 1.8142188586426748 0.069904257711847315 0.10906561222673641 0.65612981263617376 0.020834307544789678 0.65418335169196862
decision_type=2 2 2 2 2 2 2 2 2 2 2 2 2 2 2 2 2 2 2 2 2 2 2 2 2 2 2 2 2 2
left_child=10 2 7 9 5 6 12 8 -2 -3 13 16 -5 14 15 -1 -12 23 19 26 -21 -20 -17 24 27 -26 -13 -15 -23 -11
right_child=1 3 -4 4 -6 -7 -8 -9 -10 29 11 18 -14 17 -16 22 -18 -19 21 20 -22 28 -24 -25 25 -27 -28 -29 -30 -31
leaf_value=-0.0085718478692408222 0.015271757830360637 0.0023777042682165961 0.017902499465580798 0.0099796347176799426 -0.0046575019648097031 0.011445653441299268 -0.0067180401094220762 0.00035553419540879333 0.0031338836497784152 -0.0048270231950019466 -0.0021453783862106697 -0.0014665643610910345 1.6080035616557282e-07 0.0052887832323596923 0.00051799312410692896 -0.0041158128396077227 -0.0070344921985317325 -0.00099312798457517129 -0.0051193810077054709 0.008123706684620171 5.0345216143520772e-05 0.0023730570377490249 0.0005821131519041957 -0.00059733929916386545 0.0027256463498416526 0.012124269701081429 0.00021734397916174325 0.0015653900635620112 -0.00057891664842377535 0
leaf_weight=20 20 47 21 22 23 34 20 93 99 83 98 224 25 52 796 45 58 62 31 28 24 58 77 43 22 21 1832 160 3093 28
leaf_count=20 20 47 21 22 23 34 20 93 99 83 98 224 25 52 796 45 58 62 31 28 24 58 77 43 22 21 1832 160 3093 28
internal_value=-1.8414e-05 0.00219241 0.00447608 0.000286911 0.0029672 0.00475587 0.00127454 0.00311471 0.00522695 -0.00178553 -0.000188013 -0.000391495 0.00478883 0.000661846 0.000100563 -0.00220293 -0.0039985 0.00210998 -0.000284107 0.000144219 0.00450076 -0.000569431 -0.00111173 0.00277249 0.00336034 0.00744916 3.1389e-05 0.00250431 -0.00052292 -0.0035939
internal_weight=7259 515 233 282 124 101 67 212 119 158 6744 5446 47 1298 938 142 156 360 5290 2108 52 3182 122 298 255 43 2056 212 3151 111
internal_count=7259 515 233 282 124 101 67 212 119 158 6744 5446 47 1298 938 142 156 360 5290 2108 52 3182 122 298 255 43 2056 212 3151 111
is_linear=0
shrinkage=0.05


Tree=17
num_leaves=31
num_cat=0
split_feature=58 58 68 77 87 51 55 84 64 90 64 56 71 55 71 84 51 87 47 51 58 78 76 62 69 31 38 58 81 56
split_gain=0.981123 0.801542 1.86438 0.511588 0.420772 0.754551 0.533731 0.417625 0.50718 0.414642 0.534502 0.31258 0.299232 0.29864 0.287007 0.234311 0.366853 0.287741 0.277193 0.232807 0.228036 0.294361 0.592176 0.305403 0.265798 0.239903 0.208655 0.199222 0.400039 0.185703
threshold=0.40118827445627619 0.47386075758332097 0.25445041651786265 0.7608721396213417 0.46785848847457473 0.87532306048700359 1.0901620207267739 0.45532274179181237 0.74162535176594357 0.62889641633601945 0.49597753013947904 0.9513323889805323 1.0000000180025095e-35 1.1207870947305711 0.5148932085772967 0.70318350076859659 1.1135284134756207 0.78244201129497493 1.0767650016671462 0.96224904081703044 0.15301316570313389 683716981.15384626 756493898.16666687 0.85917811303151981 -0.098326654557262902 0.33340257404004225 53569183.500000007 0.30814100018142893 -1190954499.9999998 1.3824946856653197
decision_type=2 2 2 2 2 2 2 2 2 2 2 2 2 2 2 2 2 2 2 2 2 2 2 2 2 2 2 2 2 2
left_child=4 2 9 11 6 12 20 8 -5 -2 -11 -3 -6 -13 -9 16 18 -18 -7 -17 24 27 -23 25 -1 -24 -16 -22 -29 -21
right_child=1 3 -4 7 5 15 -8 14 -10 10 -12 13 -14 -15 26 19 17 -19 -20 29 21 22 23 -25 -26 -27 -28 28 -30 -31
leaf_value=-0.0052937989611229848 0.00081025348062037416 0.0092202732781995443 0.018474434470643081 -0.0014069213183632847 -0.0020382188372105119 -4.4362545709051908e-05 0.0043685719257431773 -0.0041245387724821439 0.0075595617576113931 0.012636510225763517 0.0032398388968530932 -0.0024412135490784782 -0.0066833729626492259 0.0049251860344196405 0.0033093488191116814 -0.0048642349573169682 0.0077189668360931859 4.7838387052486041e-05 0.0044363756284669592 -0.00045848581584485783 0.00078104282829442742 -0.0093219035796228041 -0.0023330952036437268 -0.0040904445702092491 -0.00028153947595802752 0.0039772080174981439 -0.0031881648332092432 0.0095087562641360569 0.0017169628212826823 -0.0045632678052589448
leaf_weight=29 119 20 21 36 98 2021 89 94 27 20 73 23 58 32 29 31 28 24 35 3123 605 20 21 30 328 47 21 20 109 28
leaf_count=29 119 20 21 36 98 2021 89 94 27 20 73 23 58 32 29 31 28 24 35 3123 605 20 21 30 328 47 21 20 109 28
internal_value=-1.7207e-05 0.00208534 0.00425628 0.000273027 -0.000178536 -0.000371926 0.00062898 -0.000989923 0.00236251 0.00281625 0.00532574 0.00382202 -0.00380047 0.00175511 -0.00249193 -0.000269804 0.000137143 0.0042813 2.96949e-05 -0.000540964 0.000349217 0.000796457 -0.00150207 5.07218e-05 -0.000704068 0.00195445 0.000479676 0.00117294 0.00297015 -0.000496692
internal_weight=7259 515 233 282 6744 5446 1298 207 63 212 93 75 156 55 144 5290 2108 52 2056 3182 1209 852 118 98 357 68 50 734 129 3151
internal_count=7259 515 233 282 6744 5446 1298 207 63 212 93 75 156 55 144 5290 2108 52 2056 3182 1209 852 118 98 357 68 50 734 129 3151
is_linear=0
shrinkage=0.05


Tree=18
num_leaves=31
num_cat=0
split_feature=58 57 58 32 63 65 57 51 67 51 63 58 58 77 47 73 56 89 89 32 73 86 84 30 57 56 74 63 58 78
split_gain=0.887123 0.753307 0.694327 1.0055 1.72432 0.418365 0.406709 0.383571 0.369055 0.566585 0.337558 0.252914 0.243094 0.36663 0.257728 0.243133 0.242168 0.239374 0.352473 0.291292 0.224772 0.30137 0.235379 0.22049 0.213212 0.189749 0.180306 0.175959 0.197988 0.238569
threshold=0.40118827445627619 0.14933830036186088 0.45035670527837496 2.5159673000817109 0.092081592535209936 0.13699211834171057 0.37706358500264581 0.67412480788065265 -0.037349297862024837 0.87532306048700359 0.11086934789215752 0.23650702158564729 0.72194635991647205 1.0822444016378665 0.94801571462612599 -0.028060066339797129 1.3824946856653197 22.790058680543861 1.4596664905548098 2.4168814346942802 0.11667542187452813 21.374762764796394 0.51120223184531233 1.0914635155096135 0.10900223152940489 0.94845096543559881 313795629.25000006 0.020834307544789678 0.12565038805537468 230705973.0769231
decision_type=2 2 2 2 2 2 2 2 2 2 2 2 2 2 2 2 2 2 2 2 2 2 2 2 2 2 2 2 2 2
left_child=7 -2 3 4 -3 6 10 -1 24 -10 -4 27 13 14 -8 -15 17 18 -13 -20 21 -21 -23 -16 25 -9 -5 -11 29 -29
right_child=1 2 5 26 -6 -7 12 8 9 11 -12 16 -14 15 23 -17 -18 -19 19 20 -22 22 -24 -25 -26 -27 -28 28 -30 -31
leaf_value=-0.0070718271667091397 0.011512509115336843 0.021038360879602026 0.00062465096843007911 -0.00019306618137359039 0.0020249460431782341 0.0070179158435490028 0.0040180810506777083 -0.0052933187375679546 -0.0039525516914269343 0.0018085243018698628 0.0081517335121220665 -0.0015358037773783037 0.0034819902457071069 0 0.00095025583908780868 -0.0063200547569680389 -0.0045775032818657479 -0.00055928482907423684 0.0073210602172126818 0.0012656493655275707 -0.00014852188472996297 0.0095649825779730406 0.0027556972470463943 -0.0037059956609313384 0.00097872882252285939 -0.00025504966991893969 0.0035774350327511251 -0.0012119666010198885 -0.00028082169431505798 0.0041129020722450518
leaf_weight=20 20 21 51 61 29 21 28 22 105 85 22 123 23 23 48 56 24 388 20 449 221 20 44 51 939 139 61 973 3151 21
leaf_count=20 20 21 51 61 29 21 28 22 105 85 22 123 23 23 48 56 24 388 20 449 221 20 44 51 939 139 61 973 3151 21
internal_value=-1.62491e-05 0.001983 0.00158563 0.00415235 0.0101364 0.000202489 -0.000257047 -0.000169689 -0.000148311 -0.000312747 0.00296953 -0.000242523 -0.00130828 -0.00186881 -0.000163344 -0.00454361 0.000368526 0.00046667 0.000926283 0.0013347 0.0011638 0.00173881 0.0049732 -0.00139928 0.000687814 -0.000977404 0.00165262 -0.000429913 -0.000477064 -0.00109404
internal_weight=7259 515 495 172 50 323 302 6744 6724 5624 73 5519 229 206 127 79 1289 1265 877 754 734 513 64 99 1100 161 122 4230 4145 994
internal_count=7259 515 495 172 50 323 302 6744 6724 5624 73 5519 229 206 127 79 1289 1265 877 754 734 513 64 99 1100 161 122 4230 4145 994
is_linear=0
shrinkage=0.05


Tree=19
num_leaves=31
num_cat=0
split_feature=58 59 31 81 57 76 84 65 87 51 55 59 11 76 63 81 59 71 65 68 58 77 71 61 84 51 87 47 51 55
split_gain=0.802997 0.8708 3.40553 0.634204 0.464608 0.454601 0.542237 0.436514 0.367524 0.638487 0.476477 0.380192 0.424724 0.355962 0.309118 0.383963 0.30565 0.259613 0.255842 0.249074 0.248329 0.229598 0.213334 0.279477 0.200908 0.326452 0.256581 0.248597 0.2091 0.185985
threshold=0.40118827445627619 0.3572360904798218 6.5090000629425058 -16620895304.166666 0.37706358500264581 1186957433.3333337 0.40307669148755354 0.059789840741131015 0.46785848847457473 0.87532306048700359 1.0901620207267739 0.31600357603003654 23.647065123335 615541629.66666687 0.11664280038773266 780049389.50000012 0.52368689614148467 1.0000000180025095e-35 0.1142724437602511 -0.13308827650486824 0.50631099657781486 0.82306197366823741 -0.58353299444418194 0.031931818769912038 0.70318350076859659 1.1135284134756207 0.78244201129497493 1.0767650016671462 0.96224904081703044 1.1378089387429167
decision_type=2 2 2 2 2 2 2 2 2 2 2 2 2 2 2 2 2 2 2 2 2 2 2 2 2 2 2 2 2 2
left_child=8 2 -2 16 14 6 18 -8 10 17 11 13 -13 22 15 -5 -3 -10 -6 -15 -9 -22 23 -1 25 27 -27 -11 -26 -30
right_child=1 3 -4 4 5 -7 7 20 9 24 -12 12 -14 19 -16 -17 -18 -19 -20 -21 21 -23 -24 -25 28 26 -28 -29 29 -31
leaf_value=-0.0044553866097331793 0.024505847447843693 0.010415509665052551 0.00058118003808976793 -0.0014391660277539913 7.6049818546721753e-05 -0.0061228037751783915 0.0049039467083173303 -3.089460932038359e-05 -0.0018502153450989608 -4.2847112572858694e-05 0.0041269288421321073 0.0015686603407667346 0.0094186893249398451 -0.0069518256419650792 0.0083521027146412977 0.0049603343335705135 0.0022746774735967574 -0.006183067302094539 0.0068213666420419332 -0.00020519311902746293 -0.0004488923534305389 -0.0060445812002359366 0.00059756123116743278 -0.00010500091604570761 -0.0045968224393305671 0.0072841166637943947 2.8854427488203848e-05 0.0042004530270113956 -0.00083291963726479182 -6.0699490329642092e-05
leaf_weight=50 20 24 59 47 26 35 23 66 98 2021 89 110 21 30 22 45 26 58 35 28 30 57 820 150 31 28 24 35 1611 1540
leaf_count=50 20 24 59 47 26 35 23 66 98 2021 89 110 21 30 22 45 26 58 35 28 30 57 820 150 31 28 24 35 1611 1540
internal_value=-1.52599e-05 0.0018868 0.00672459 0.000997425 0.000296799 -0.000811884 -4.23172e-06 -0.00143338 -0.000161277 -0.000342059 0.000593345 0.000328767 0.00287143 1.49045e-05 0.00298429 0.00163872 0.00629507 -0.00349611 0.00403298 -0.00378685 -0.00242129 -0.00417517 0.000236334 -0.00121927 -0.000248038 0.000128655 0.00403799 2.7157e-05 -0.000499155 -0.00045711
internal_weight=7259 515 79 436 386 272 237 176 6744 5446 1298 1209 131 1078 114 92 50 156 61 58 153 87 1020 200 5290 2108 52 2056 3182 3151
internal_count=7259 515 79 436 386 272 237 176 6744 5446 1298 1209 131 1078 114 92 50 156 61 58 153 87 1020 200 5290 2108 52 2056 3182 3151
is_linear=0
shrinkage=0.05


Tree=20
num_leaves=31
num_cat=0
split_feature=24 58 53 84 67 64 72 65 70 78 73 59 64 63 59 59 73 80 81 80 67 65 65 73 69 89 64 63 82 81
split_gain=0.564896 0.420985 0.605497 0.510072 0.660201 0.424387 2.09304 0.402672 0.797228 0.313275 0.480501 0.305937 0.297285 0.29245 0.46431 0.347031 0.267541 0.228924 0.239352 0.232773 0.228908 0.226712 0.221108 0.198708 0.348771 0.194968 0.232042 0.222546 0.219151 0.265523
threshold=0.28169906139373785 0.23650702158564729 0.36720601870463448 0.93421317319155273 0.21308217769857643 0.17356087417498481 0.07310127219569966 0.11819053840283471 32.148408941175546 522818770.1538462 -0.12617548715340679 0.2357999517649009 0.028930271435871287 0.080816002864666656 0.35466034072261859 0.37682660225953096 -0.046378653794977236 -6188470261.999999 -4536176449.499999 1548650250.0000002 -0.10110832147782399 0.12781158295150633 0.073336970812227786 0.014818085802709881 0.34292923369320399 68.490425109863295 1.7995437204343128 0.048150226762015823 19.10399072911973 1918227892.1250002
decision_type=2 2 2 2 2 2 2 2 2 2 2 2 2 2 2 2 2 2 2 2 2 2 2 2 2 2 2 2 2 2
left_child=-1 9 12 4 5 6 -4 13 -9 17 -11 -12 -3 14 -7 16 -16 -2 -19 -20 -14 -10 -5 24 -15 26 28 -28 29 -21
right_child=1 2 3 22 -6 7 -8 8 21 10 11 -13 20 23 15 -17 -18 18 19 25 -22 -23 -24 -25 -26 -27 27 -29 -30 -31
leaf_value=0.0073374546660195999 0.0042029394294916178 -0.00041947536364013839 0.0010223700713087392 -0.00071946799883016116 0.0096244839690119988 0.00044804905247659453 0.018505425764298741 -0.0027603615990545584 0.0045771587634529758 -0.0078904393465603438 0.0013263322964213607 -0.0030964846518085837 -0.0017221231451397066 -0.00085887358115288017 0.010322011538485498 0.0010504343396345159 0.0037245250330314051 -0.0035495254372947208 -6.8456376456576281e-06 -0.0014135583750337945 -0.0090935948825179476 0.012487783743028853 -0.0051635444503730149 -0.0033804792127535423 0.0048508680499842593 -0.0035168236072537157 0.00011555471828260431 0.0051866345509453925 -0.0014412322564986285 0.0039651343104510186
leaf_weight=26 29 47 121 263 22 1115 20 23 21 32 69 87 20 235 21 112 78 54 3654 46 28 21 32 61 30 65 236 24 655 44
leaf_count=26 29 47 121 263 22 1115 20 23 21 32 69 87 20 235 21 112 78 54 3654 46 28 21 32 61 30 65 236 24 655 44
internal_value=-4.42456e-06 -3.14886e-05 0.000532323 0.000704946 0.00100972 0.00090451 0.00354903 0.000684236 0.00455155 -0.000288722 -0.00229313 -0.00110861 -0.00336385 0.000528779 0.000860458 0.00301484 0.00518345 -0.000209244 -0.000237158 -0.000198161 -0.00613606 0.0086715 -0.00122007 -0.000804837 -0.000192041 -0.000846761 -0.000668763 0.000604692 -0.00111992 0.00116201
internal_weight=7291 7265 2270 2175 1880 1858 141 1717 65 4995 188 156 95 1652 1326 211 99 4807 4778 4724 48 42 295 326 265 1070 1005 260 745 90
internal_count=7291 7265 2270 2175 1880 1858 141 1717 65 4995 188 156 95 1652 1326 211 99 4807 4778 4724 48 42 295 326 265 1070 1005 260 745 90
is_linear=0
shrinkage=0.05


Tree=21
num_leaves=31
num_cat=0
split_feature=24 58 53 84 69 80 81 51 86 80 72 74 78 24 78 18 80 30 60 79 81 77 63 65 80 52 51 88 71 51
split_gain=0.510015 0.380198 0.548377 0.4613 0.600998 0.419463 0.98855 1.44382 0.584806 0.516669 0.379097 0.316852 0.297386 0.290937 0.281396 0.249304 0.285535 0.405344 0.346021 0.274624 0.23676 0.225386 0.209786 0.199394 0.19094 0.211587 0.37174 0.235339 0.206735 0.235568
threshold=0.28169906139373785 0.23650702158564729 0.36720601870463448 0.93421317319155273 0.69311613023713081 30383498.000000004 -66539733.333333321 1.0633578130289982 21.374762764796394 -398414899.99999994 -1.0036868589342793 458899962.50000006 1018202815.3846155 27.618913650512699 2144933600.0000002 45434722.20000001 5416359700.000001 1.1185561749597024 1.0512953067649482 0.71663811001045996 -35209555499.999992 0.99169172074826462 0.088185004137674841 0.073336970812227786 1473189350.0000002 1.0098998746333896 0.98987281214240885 83.643148723035495 -0.12136572219867146 0.92584645834466439
decision_type=2 2 2 2 2 2 2 2 2 2 2 2 2 2 2 2 2 2 2 2 2 2 2 2 2 2 2 2 2 2
left_child=-1 11 20 4 5 6 8 21 10 -10 -4 24 -13 -12 -14 22 17 19 -18 -17 -3 -8 -7 -5 25 27 -27 28 -2 -30
right_child=1 2 3 23 -6 15 7 -9 9 -11 13 12 14 -15 -16 16 18 -19 -20 -21 -22 -23 -24 -25 -26 26 -28 -29 29 -31
leaf_value=0.0069719876237641799 0.0023786259012246033 0.00031833810533746535 0.0068084513422995126 -0.00068350825949691667 0.0082382598016875076 -8.6313074183065152e-05 0.0053635200647887318 0.018234024905317014 0.011921356658252022 0.0025732644827901954 0.00034953646260431012 -0.0045154609448454664 0.0010033698371577208 -0.0057745247013607425 -0.0040645657405675275 0.004977944160853523 0.0021161872441377069 0.0082592923950646577 -0.0023303711522384011 0.00054516779032848955 -0.0049008453991936504 0.00030455207392630522 -0.0031253226491786456 -0.0049061715521637895 -0.00074658961970461616 -0.0030043693959639819 -0.00011786967038656307 -0.0012630435468957341 -0.0017393652696606979 0.00088657382120611275
leaf_weight=26 190 30 22 263 28 611 58 20 20 65 527 83 84 20 40 46 79 26 97 159 65 39 63 32 1167 117 2490 143 99 582
leaf_count=26 190 30 22 263 28 611 58 20 20 65 527 83 84 20 40 46 79 26 97 159 65 39 63 32 1167 117 2490 143 99 582
internal_value=-4.10478e-06 -2.98547e-05 0.000505911 0.000670282 0.000960188 0.000847014 0.00173883 0.00597807 0.000971989 0.00484299 0.000384185 -0.000274342 -0.00219141 0.000115468 -0.000593116 0.00020622 0.00118619 0.00234438 -0.000306012 0.00156616 -0.0032015 0.0033834 -0.000378214 -0.00116001 -0.000190373 -9.71532e-06 -0.000249441 0.000601655 0.00091365 0.000497289
internal_weight=7291 7265 2270 2175 1880 1852 771 117 654 85 569 4995 207 547 124 1081 407 231 176 205 95 97 674 295 4788 3621 2607 1014 871 681
internal_count=7291 7265 2270 2175 1880 1852 771 117 654 85 569 4995 207 547 124 1081 407 231 176 205 95 97 674 295 4788 3621 2607 1014 871 681
is_linear=0
shrinkage=0.05


end of trees

feature_importances:
volatility_12w=38
obv=37
atr_pct_26w=36
obv_sma_12=32
price_sma_26_ratio=30
price_position_26w=30
volatility_26w=28
support_52w=27
atr_pct_12w=20
atr_26w=19
macd=19
volume_sma_4=18
price_sma_52_ratio=17
macd_histogram=17
ema_52=14
sma_52=13
price_ema_52_ratio=13
atr_4w=13
price_sma_12_ratio=12
macd_signal=12
volume_sma_26=12
roc_26w=11
support_12w=11
price_position_12w=10
avg_daily_volume_lag_12=9
price_ema_26_ratio=8
roc_12w=7
volume_sma_12=7
resistance_12w=7
support_26w=7
resistance_52w=7
volume_lag_12=6
ema_26=6
volatility_4w=6
roc_4w=6
rsi_14w=6
volume_ratio_26=6
resistance_26w=6
ema_4=5
sma_12=5
close=4
weekly_volatility_lag_1=4
high_lag_12=4
atr_pct_4w=4
atr_12w=4
volume_ratio_12=4
price_position_52w=4
low_lag_1=3
close_lag_4=3
open_lag_12=3
sma_4=3
ema_12=3
open=2
avg_daily_volume=2
avg_daily_volume_lag_4=2
high_low_ratio_lag_4=2
price_ema_12_ratio=2
sma_26=2
high=1
low=1
volume=1
weekly_volatility=1
open_lag_1=1
close_lag_1=1
volume_lag_1=1
avg_daily_volume_lag_1=1
open_lag_4=1
high_lag_4=1
low_lag_4=1
price_sma_4_ratio=1

parameters:
[boosting: gbdt]
[objective: regression]
[metric: rmse]
[tree_learner: serial]
[device_type: cpu]
[data_sample_strategy: bagging]
[data: ]
[valid: ]
[num_iterations: 1000]
[learning_rate: 0.05]
[num_leaves: 31]
[num_threads: 0]
[seed: 42]
[deterministic: 0]
[force_col_wise: 0]
[force_row_wise: 0]
[histogram_pool_size: -1]
[max_depth: -1]
[min_data_in_leaf: 20]
[min_sum_hessian_in_leaf: 0.001]
[bagging_fraction: 0.8]
[pos_bagging_fraction: 1]
[neg_bagging_fraction: 1]
[bagging_freq: 5]
[bagging_seed: 400]
[bagging_by_query: 0]
[feature_fraction: 0.8]
[feature_fraction_bynode: 1]
[feature_fraction_seed: 30056]
[extra_trees: 0]
[extra_seed: 12879]
[early_stopping_round: 0]
[early_stopping_min_delta: 0]
[first_metric_only: 0]
[max_delta_step: 0]
[lambda_l1: 0.1]
[lambda_l2: 0.1]
[linear_lambda: 0]
[min_gain_to_split: 0]
[drop_rate: 0.1]
[max_drop: 50]
[skip_drop: 0.5]
[xgboost_dart_mode: 0]
[uniform_drop: 0]
[drop_seed: 17869]
[top_rate: 0.2]
[other_rate: 0.1]
[min_data_per_group: 100]
[max_cat_threshold: 32]
[cat_l2: 10]
[cat_smooth: 10]
[max_cat_to_onehot: 4]
[top_k: 20]
[monotone_constraints: ]
[monotone_constraints_method: basic]
[monotone_penalty: 0]
[feature_contri: ]
[forcedsplits_filename: ]
[refit_decay_rate: 0.9]
[cegb_tradeoff: 1]
[cegb_penalty_split: 0]
[cegb_penalty_feature_lazy: ]
[cegb_penalty_feature_coupled: ]
[path_smooth: 0]
[interaction_constraints: ]
[verbosity: -1]
[saved_feature_importance_type: 0]
[use_quantized_grad: 0]
[num_grad_quant_bins: 4]
[quant_train_renew_leaf: 0]
[stochastic_rounding: 1]
[linear_tree: 0]
[max_bin: 255]
[max_bin_by_feature: ]
[min_data_in_bin: 3]
[bin_construct_sample_cnt: 200000]
[data_random_seed: 175]
[is_enable_sparse: 1]
[enable_bundle: 1]
[use_missing: 1]
[zero_as_missing: 0]
[feature_pre_filter: 1]
[pre_partition: 0]
[two_round: 0]
[header: 0]
[label_column: ]
[weight_column: ]
[group_column: ]
[ignore_column: ]
[categorical_feature: ]
[forcedbins_filename: ]
[precise_float_parser: 0]
[parser_config_file: ]
[objective_seed: 16083]
[num_class: 1]
[is_unbalance: 0]
[scale_pos_weight: 1]
[sigmoid: 1]
[boost_from_average: 1]
[reg_sqrt: 0]
[alpha: 0.9]
[fair_c: 1]
[poisson_max_delta_step: 0.7]
[tweedie_variance_power: 1.5]
[lambdarank_truncation_level: 30]
[lambdarank_norm: 1]
[label_gain: ]
[lambdarank_position_bias_regularization: 0]
[eval_at: ]
[multi_error_top_k: 1]
[auc_mu_weights: ]
[num_machines: 1]
[local_listen_port: 12400]
[time_out: 120]
[machine_list_filename: ]
[machines: ]
[gpu_platform_id: -1]
[gpu_device_id: -1]
[gpu_use_dp: 0]
[num_gpu: 1]

end of parameters

pandas_categorical:[]
